0
-0.006769816
-0.0065266276
-0.015560122
-0.025580252
-0.014572751
0.013009719
-0.020092884
-0.0036322775
0.000885414
-0.002796536
0.0037696285
-0.018225659
-0.012936184
-0.014088664
-0.013382342
-0.0075641046
-0.005206007
-0.006003251
0.0059488947
-0.0054119243
0.0007343997
0.011495809
-0.015495794
0.00035637594
-0.012281184
-0.019401215
0.012314572
-0.020172672
-0.019029329
-0.01273484
-0.024676684
-0.0191844
0.010124669
-0.007942409
0.0035533735
-0.015515088
0.023072552
-0.02079829
-0.0036421656
0.0074060406
-0.014979008
0.003233507
-0.012987147
0.0014532575
-0.002327903
-0.007835737
-0.0065694298
-0.008125258
-0.02371664
-0.009644461
-0.0049780314
0.011892305
0.006882711
-0.0063783983
-0.010893614
-0.021315984
-0.019096317
-0.03897351
-0.002893477
0.0076884856
0.034883007
-0.01484335
-0.013233631
0.007485275
-0.01525838
6.3093954e-05
-0.0055511347
-0.021692738
-0.0031958949
-0.0117696915
-0.011001657
-0.01162449
-0.03229574
0.0074768346
-0.023123281
-0.029519215
-0.012985048
-0.022092463
0.029899133
0.0023080967
0.017127559
-0.011924224
0.0062036514
0.0018478321
-0.01615001
0.0019589176
0.011031966
-0.0042934553
-0.0029757991
-0.015631307
-0.014953002
-0.00112061
-0.011390944
-0.0030823515
0.0047040926
-0.013678225
-0.008102986
-0.004044095
-0.015778279
0.010740866
-0.015961142
-0.0073624165
-0.0214725
0.008707471
0.0036643764
-0.021760412
0.004967773
-0.012374901
-0.0169476
-0.018773224
-0.010025951
0.02254924
0.030197391
0.0027558652
0.009856177
-0.022974258
-0.0081286
-0.0021150417
0.006142514
-0.0066128643
-0.010790172
0.007437791
0.004838653
-0.007901542
0.023362746
-0.010385161
0.027961398
-0.012639026
0.004680297
-0.0063535213
-0.017992917
-0.01784718
-0.014631211
-0.0025726925
0.00046532304
-0.009914866
0.0016236863
-0.026130205
-0.005207157
-0.022218993
-0.02091983
-0.018638479
-0.019449081
-0.010410847
-0.005382864
-0.006286725
-0.0009736376
-0.02375842
-0.012142901
-0.0111757545
0.019792413
0.014000973
-0.035040982
-0.021915628
-0.008901208
-0.00795556
-0.016403321
-0.0073691932
-0.02395797
-0.01561636
0.004829419
-0.0113920225
-0.010165758
0.009612352
-0.0045852144
-0.03394945
-0.024106773
-0.03618728
0.0063009257
-0.0034570398
0.0026839229
-0.0008433232
-0.0024667254
-0.0035429362
0.0021063501
-0.031506043
0.0020458845
-0.011534006
-0.0029463167
-0.015466798
-0.02079484
-0.00021998181
-0.009994863
-0.009094328
0.01090047
0.0094061075
-0.0017947683
-0.015596239
-0.01179502
0.005703419
-0.026447928
0.0014500871
-0.005438739
0.0031346518
-0.021921357
-0.005176843
-0.015242528
-0.008615456
-0.0050278422
-0.009834038
-0.0028591752
-0.016088663
-0.007337462
-0.005376304
-0.0110993525
-0.023149729
-0.0033843098
-0.009853339
-0.0027991422
0.00081297994
-0.011468647
-0.0027883481
0.010878856
-0.013201224
-0.0052745
-0.009022272
0.0039145728
-0.0126818735
-0.013533378
-0.0022775824
0.011592122
-0.020981338
0.00768046
0.0036333017
-0.001993568
-0.007930874
-0.002556864
0.009392397
-0.006790059
-0.0046782526
-0.018445732
5.534615e-05
-0.012007245
-0.0045997403
-0.009372125
-0.0012495514
-0.010482951
-0.001918823
-0.0026809752
-0.011382875
0.00046820188
0.009831805
-0.010265262
-0.0074666683
0.0013393648
-0.012622291
-0.0031200405
-0.0097084865
-0.0026097235
-0.00073888514
0.005671394
-0.0012862253
-0.03528257
0.0016005287
-6.0871356e-05
-0.0018440862
0.0008412245
-0.0049320306
-0.010116621
-0.010224929
-0.014246007
-0.009050291
-0.016518285
-0.00965242
0.00921493
-0.0016180584
-0.01648528
0.0029107614
-0.03439009
-0.009936779
-0.007410572
-0.007850614
0.004627737
0.020565175
0.0008409315
-0.00881697
-0.008227423
-0.014251131
-0.016556915
-0.007055398
-0.00391
-0.020195168
0.021256892
-0.01162558
-0.0060222032
0.009878617
-0.007146972
-0.005816631
-0.020112097
-0.022953888
-0.01779602
-0.011779955
-0.016950503
-0.017473187
-0.012965686
-0.014619666
-0.0066330996
-0.010442786
0.005214334
-0.015899194
-0.030176053
-0.0051869787
-0.00966153
-0.004922067
-0.011922967
-0.010877221
0.0035855223
-0.01918945
-0.0038316497
0.006887134
0.02400963
-0.011412983
0.00021545439
0.0054498804
0.024393065
-0.011570109
-0.0029344992
-0.015592891
0.0037874884
-0.0070293546
-0.024335138
-0.0145685505
-0.008259021
-0.014685629
-0.011235908
-0.0102564525
-0.011190723
-0.004611517
-0.009644484
-0.009682326
0.0029082461
0.0068976004
-0.009153455
-0.0053847716
0.011608371
-0.0012118041
-0.00065368135
0.016243855
-0.0032344111
-0.010660519
-0.014558593
0.022201702
-0.008422626
-0.017332973
-0.014191838
0.03160076
0.0018482243
-0.016319772
0.0021234115
-0.015376956
-0.0074598677
-0.025080007
-0.02218569
0.003302728
0.0022030117
0.010866542
0.05576322
0.017312989
0.01138068
-0.010536864
-0.0018592302
0.013509341
0.006537868
0.00019194276
-0.008538399
-0.01374718
-0.022257455
-0.010445285
-0.017127704
-0.013188345
-0.012874459
0.018700475
-0.011731569
-0.0035084311
-0.0063151526
-0.018720461
-0.021051338
-0.0011293183
-0.016976207
-0.016302014
0.02404803
-0.0014820438
-0.018575378
-0.007827609
-0.01066884
-0.012100736
-0.020452758
-0.0205065
-0.017246215
0.012634228
-0.0036348018
0.005383457
-0.020673001
-0.0364234
-0.004653516
0.02551804
-0.01973126
-0.015259248
0.010653527
0.010603421
-0.010264199
0.008974479
-0.017217632
-0.016850842
-0.018734755
0.009216103
-0.00583518
-0.0105251055
0.013860314
0.035053924
0.007821492
0.00027620577
0.034396548
0.010960022
0.00030688682
0.020243596
-0.0068445224
0.025391074
0.0022969458
0.0300442
-0.0014168661
0.033062015
0.0003120146
-0.00080150674
-0.00020286399
-0.010424299
0.0005989711
0.05596894
0.032605506
0.0061231693
-0.009715655
-0.023902722
0.004928768
0.0026702797
0.0070479373
-0.00045011396
-0.0075683165
-0.0016503124
-0.0010199647
0.012476578
0.0028836671
-0.007386124
0.0072968355
-0.013587014
-0.023942057
-0.011522286
0.006066772
0.043002676
0.025275845
-0.0074096457
0.0062359003
0.014096771
0.012945523
-0.022069328
-0.012645824
0.008540609
0.039844856
0.03263702
-0.013974718
0.0035964206
-0.0040591145
0.015348682
0.016926495
0.044959296
0.03916537
0.008436607
-0.019121628
-0.012851586
-0.0026820602
0.028950091
0.014423441
0.0192011
0.0027602084
0.017357873
-0.01874408
-0.008808778
-0.0030330573
-0.0049348515
0.011277012
0.0021461046
-0.0003930031
-0.0052370117
-0.00016456535
-0.013002093
-0.018951064
-0.019881994
-0.011577304
0.018762533
0.038614426
0.00636082
0.019654302
0.02340829
0.013051704
-0.020098988
0.032124046
-0.019191409
-0.020312093
-0.0071827224
-0.0043705227
0.014578644
-0.020906586
-0.000611276
0.027002798
0.0007420055
-0.0014790391
0.003952213
0.05037753
0.014282297
-0.017485533
-0.005482712
-0.01674752
-0.021701941
-0.00855803
-0.00047874745
0.034684043
0.043919683
0.00039615599
0.0035140426
0.027874714
0.02259632
-0.02714176
0.0046544
0.027537242
0.038592692
-0.005399123
-0.008371348
-0.0017404505
-0.025220836
-0.013085715
0.0059325187
0.004192126
-0.02446187
-0.012970139
-0.034077782
0.007798977
-0.011078835
0.0014583075
-0.017357353
0.009774915
0.034147497
-0.014335926
0.004353334
-0.00042305415
0.010196184
-0.002228933
0.013497064
-0.010246642
-0.036491014
-0.033062927
-0.015894836
-0.024386222
0.0068842303
0.005331978
-0.0015615778
-0.015739486
-0.016314145
0.013719624
0.008478104
0.012691249
0.027961334
-0.0010938949
0.005446711
0.017305389
-0.016439952
-0.021312082
-0.015481501
-0.0075395876
0.013351752
0.011585251
-0.016150992
0.017063046
-0.008330869
0.014914527
-0.01596971
0.0070861396
-0.000562582
-0.016050324
0.023837633
0.011949005
-0.005389456
0.01886418
-0.013563396
0.025708867
0.039975837
0.022617478
-0.0066983635
-0.012245186
0.027597139
0.015504948
0.011853753
-0.017452126
0.010439183
-0.01633189
0.02008719
-0.0047612702
0.0010264531
0.0037821145
-0.017840879
-0.018364847
0.03274971
0.08533336
0.011572694
0.009456541
-0.01202094
0.007692411
-0.0019301671
0.017125001
-0.017706126
0.015226324
-0.011584364
0.0040536486
0.010524498
-0.0074740667
0.017661838
0.007830082
0.039835446
0.032669205
0.01875484
0.027600985
0.00075853185
0.011080727
0.019139575
-0.0016956315
-0.007110331
0.0067125172
-0.010720283
0.01325817
-0.008902909
-0.016485061
-0.0036317378
-0.0020085035
0.016292572
0.013593691
0.031161293
0.01392409
0.00088398065
0.014120501
0.019789048
0.03244505
-0.010075757
-0.026704054
0.034479287
-0.01108622
0.019605719
0.021512989
-0.008185802
0.034093965
-0.0060654785
-0.015629329
-0.0020645584
0.012747603
-0.010341304
0.025795309
0.014319227
-0.008259317
0.013382969
0.0037175098
0.00674204
-0.016185915
0.011988212
0.0034081338
-0.022425005
-0.009997291
-0.007871358
-0.008610019
-0.005283217
0.026708562
0.0030067873
-0.022815108
-0.01700839
-0.009121949
-0.009482628
0.0037998974
0.0067185033
0.021532688
-0.006108444
0.040554624
0.030797033
0.041380454
-0.018658847
0.026495412
-0.013355694
-0.010387536
0.012304606
0.009259044
-0.022404177
-0.00998073
-0.020780602
-0.016750924
-0.01186
-0.019533623
0.024098849
0.038261797
0.0152746895
-0.0067691123
-0.00011314627
0.032749895
0.0020997345
0.00010323209
0.0036726873
0.04361139
0.015820982
0.0007509557
0.006075466
-0.0027477862
0.010341374
-0.010323693
-0.0036138673
0.02046698
-0.012169464
0.004452099
0.009373674
-0.011324395
-0.004837219
0.001203396
-0.0079192445
0.021445196
-0.023328058
0.004370142
-0.0089033805
-0.004812193
-0.0016512647
0.03567631
-0.0015090905
-0.01877274
0.0027434907
-0.003554269
0.006965165
0.031508956
-0.00884236
0.012518705
0.050454434
-0.021527432
0.09960335
-0.030666754
-0.010803505
-0.009910761
0.00036098107
0.054850604
0.00093167106
-0.006853457
0.0030559949
0.009578148
0.034762103
0.020162895
-0.0020531197
0.004677661
0.009670759
-0.0016706485
0.04373967
0.004236472
-0.0016391731
0.002257458
0.001975643
0.01596623
-0.007869969
0.0026102364
0.0007447618
0.031756308
-0.013637286
-0.0033110108
-0.0063001183
0.020652503
0.0096007725
0.018247658
0.010194742
0.005366066
0.0007358928
-0.008257991
0.036049806
-0.0044995327
-0.0054954006
0.031617258
-0.0058922763
0.0016460182
0.022647047
-0.01664021
-0.0033251864
0.025892131
-0.009399482
-0.018938996
-0.01061102
0.011417428
0.035166588
0.029987162
-0.0007899064
0.009788133
0.02191521
0.004019751
-0.009183231
-0.0032638279
-0.0002629608
0.022768714
0.003991629
-0.017120019
0.0103470795
0.013403301
0.018828385
-0.021896128
0.032247685
-0.011121437
-0.009384692
-0.02497386
-0.014628498
0.011439142
0.030761722
-0.004465461
0.029480115
0.026560642
0.0007323766
-0.014111069
0.000656013
0.005034764
0.043812174
-0.013008695
-0.015434978
-0.0070898575
-0.02266134
0.041473825
0.010906117
-0.028273312
-0.025360245
0.0050470904
0.011603688
0.010056014
-0.008026484
-0.0036717907
0.008096652
0.032116644
-0.009352248
0.03961886
0.01054362
-0.015977515
-0.0033556386
0.0036524348
0.0017931067
0.034557633
0.044090495
0.018842425
-0.0040917126
0.02052097
-0.00927263
0.0057089906
0.006235569
0.011461457
0.02643521
0.00075197354
-0.011437348
0.0066720378
-0.010936323
0.033419974
0.015448158
0.059042227
-0.0027630539
-0.0035127476
0.01765224
0.017025279
-0.021437299
0.004053028
0.006871386
0.015148743
0.011489748
0.01877923
-0.011786275
0.0002200363
-0.00272596
-0.008006469
-0.0064396537
0.041670732
-0.011708435
0.011786013
-0.010112902
0.024506038
-0.010440351
-0.028672274
-0.013947615
0.031522274
0.014626846
-0.011633746
0.034409285
0.02469772
-0.008482566
0.014029523
0.014909151
0.016929636
0.032246534
-0.019641133
0.0031339119
-0.017065695
-0.007861961
-0.011873815
-0.0054624015
0.009438018
-0.019212903
-0.009176008
-0.011956617
-0.011860628
-0.002896948
0.030628476
0.039936423
-0.0167598
-0.014718612
0.04744345
0.017402502
0.037108738
0.009265822
0.00977685
0.008073537
0.0068209046
0.001812513
0.02938462
0.052429907
0.049100336
0.0051396023
-0.026723377
-0.0014728489
-0.0019118486
-0.0022418338
0.003497292
-0.0056401906
0.009354661
0.011871112
-0.018195666
0.035180688
-0.012785629
-0.010489173
-0.027735513
-0.018627966
-0.009498899
0.023327252
0.0017763149
-0.0045028697
0.0049877698
-0.029384304
-0.01542123
-0.015249987
0.016210074
-0.002253306
-0.005842011
-0.0074590747
-0.0036778627
-0.016176164
-0.0021988968
0.005398051
-0.014173122
-0.016199132
-0.0071285167
0.010832966
0.0057671764
-0.0030870847
-0.0023322343
-0.013459218
0.014219273
-0.0039058127
-0.00037337173
-0.003981373
-0.0009140471
-0.00846757
-0.002583506
-0.027242102
0.003467671
0.002251385
0.00036397268
-0.02325799
-0.01940496
-0.017804215
0.005749781
-0.014875482
0.022331659
0.018538168
0.0043189824
0.025326429
0.015881196
0.0050795497
-0.021449761
0.04075155
-0.016258279
0.030961731
0.0060335607
0.00165973
0.0035846992
0.00034125496
0.0014512456
-0.018426457
-0.014646873
0.0034676166
-0.019565994
0.03282465
0.0023078576
-0.00949393
0.0033751363
-0.008277758
-0.025038334
-0.018267281
-0.009004048
0.025374955
0.050210927
-0.010512607
0.032393906
0.0032625946
