0
0.032465253
-0.016786478
-0.048451867
0.008504601
0.07484939
-0.033447105
0.03476079
-0.050735872
0.04924274
0.2074765
0.03437649
0.061598364
0.16953072
-0.0025241482
0.059583426
0.039944213
0.10017772
-0.03841569
-0.0051478725
0.026905928
0.046392184
0.05507853
-0.07755139
0.030593826
0.0030939411
0.06689196
0.01861965
0.036783475
0.3070626
0.012417866
-0.0060028518
-0.057039827
0.03630054
0.08132165
0.0013243593
0.0077969693
0.04016784
0.03442455
-0.003940692
0.07482904
0.055506997
-0.0008310971
0.0076283226
-0.018687937
0.12287867
-0.05777291
0.029370649
0.02423502
-0.04271609
-0.0067862268
0.038789492
-0.13710465
0.076965235
0.00811576
0.024157237
0.014328729
0.06419586
0.026196904
-0.02592874
0.0040137977
0.09064483
0.045413353
0.015177435
0.034841485
-0.07447635
0.043103997
-0.0005155236
0.09241574
0.10317171
-0.11211094
-0.009298257
-0.059964225
0.0552412
0.014036067
0.074905396
0.067899995
-0.009001096
-0.026390996
0.06146774
0.012652932
0.00836236
-0.024258334
0.04086917
0.057059247
0.102600195
0.29950798
-0.10377857
-0.06714183
0.050300837
0.03218416
0.064642966
0.03405436
0.07951541
-0.01731973
-0.016662965
0.10123403
0.007325348
-0.064481296
0.016292952
0.057514597
-0.06871191
0.059127335
0.05610783
0.024078153
-0.0070622466
0.053868506
0.021574233
0.03416105
0.14092757
-0.027522262
0.08525281
0.008729597
0.025693828
0.06389493
-0.08814333
0.090646066
0.02890556
0.14865507
-0.008054105
0.008953989
0.015830742
0.071122706
0.22568856
0.10183644
0.059739582
0.048279174
-0.009011937
0.0036923976
0.009981216
-0.014368392
0.02768988
-0.0043968842
0.022269744
-0.0068858457
0.042617638
0.05499643
0.034098625
-0.011988868
0.0992379
0.06275405
0.015947014
-0.0005610844
-0.00045786408
0.05406151
0.0412779
0.034221794
0.07113681
-0.026961608
0.19721861
0.018976592
-0.10890735
0.059960414
0.052273583
-0.06892573
0.10148809
0.16861773
-0.020014757
0.021751657
0.20352614
-0.060884308
0.054912582
0.11752487
-0.044346184
-0.0059156315
0.04620763
0.062645316
0.03610083
-0.059377063
0.029358981
0.013379181
-0.012962297
-0.31565842
-0.039428353
0.070362054
0.032908678
-0.06682594
0.023377901
0.020404192
0.021137828
0.028550735
-0.0070001213
0.017241338
0.0180847
-0.03343897
0.043963984
0.031881552
0.01980397
-0.3566511
0.3196871
0.024585702
0.011439221
0.02586603
0.04810342
-0.12226672
-0.16060509
-0.029583812
0.13650127
0.07583875
0.002281857
-0.103811435
0.061013862
-0.022437999
-0.014845325
-0.017648896
0.038246654
0.067925856
0.023894003
-0.020441066
0.008863395
0.0075493096
0.01856788
0.065946475
-0.0037442923
-0.0010436338
0.0075271525
0.031906392
0.102234006
-0.009065638
-0.276268
-0.018343467
0.07436467
-0.003996964
-0.041931827
0.02471754
-0.015874397
0.14568605
0.06438739
0.00086081715
0.061544385
-0.039361484
-0.014859081
-0.032652486
-0.0016766215
0.017374577
0.014383211
0.13001648
0.045436166
-0.05636575
-0.044496585
-0.029038228
0.062588796
-0.06285411
0.0030376925
0.11406908
0.04073074
-0.006820668
0.094439074
0.15533532
-0.15321039
0.106351085
-0.016490538
-0.1008763
-0.014485206
0.021427505
0.013038342
0.07124548
0.039308947
0.048333757
-0.015724402
-0.006830922
0.050150637
0.02959627
0.052854467
-0.09122416
0.03323415
0.01387246
0.081942685
0.045249842
-0.097042106
0.09812356
0.05404667
-0.33401164
0.11931482
-0.02782123
0.027371127
0.036895774
-0.06846118
0.060330592
0.062089007
0.27520412
0.059091896
-0.002502679
0.023297813
0.05124938
-0.034861077
0.09530989
-0.053934447
0.009959534
-0.3072402
0.03693081
0.041856702
0.2908506
-0.022927303
0.010756205
0.049373586
0.07072521
0.039282676
0.010148149
-0.028469864
0.020911684
0.0621691
-0.07027018
0.024015749
-0.0027491967
-0.031104973
0.040731736
-0.0613989
0.059487335
0.35963526
0.25790226
0.027385661
0.11818423
0.10526946
-0.03675404
-0.006866941
0.066712506
0.34459242
-0.009759354
0.09496817
0.07266753
-0.0027019666
-0.0074095605
0.01034457
0.010834792
0.006793653
0.03506301
0.03442909
0.0435388
0.32253507
0.024701986
-0.027523153
-0.0046897936
0.00987348
0.019510591
-0.034256373
0.0036909033
0.05023723
-0.015137721
0.055855654
-0.031708736
0.07556888
-0.0022261287
-0.016295647
-0.022096023
0.023431983
-0.08407534
-0.033431683
0.044881657
0.045114417
0.070623904
0.023274567
-0.058880813
-0.081924886
0.023054367
-0.021740066
0.013936109
0.043488655
0.14164749
-0.041292056
0.043285552
-0.015754143
0.0006885164
0.07158619
0.12340114
0.07414723
0.07441603
0.040126007
0.013146985
0.032690555
0.0007083712
0.0052853627
0.095623985
-0.028759593
0.17536917
0.03247269
0.009611193
0.04458463
-0.06299214
-0.015167227
0.059878517
0.07692375
0.023325695
0.11249438
0.056669086
0.086836256
0.004041165
-0.0151958065
0.021214658
-0.06290272
0.11851911
-0.062101435
0.30732635
-0.018843817
0.038408916
-0.0062175733
0.036181334
0.0045032236
0.08366239
0.13970372
0.032903437
-0.07897239
0.10075909
0.020968527
0.0002533512
-0.013056085
-0.030935448
0.0003442665
-0.016188191
-0.030759232
0.027694007
0.00093420886
0.0383086
-0.01262476
-0.011593353
0.13238244
-0.062933296
0.07165406
0.002288469
-0.010432823
0.0070971935
0.016041337
0.0012914507
-0.022367304
-0.08578923
0.079009056
0.07254907
0.025103588
-0.012592455
-0.0073849536
0.030724026
-0.29869953
0.045167796
0.03215425
0.013630484
-0.00815234
0.03824445
-0.04547521
0.011076032
0.0312845
0.059686475
-0.11664341
0.021812374
0.0021598379
-0.07970339
-0.036139544
-0.055782713
0.046772774
-0.04750289
0.018961502
0.13173097
0.0065482007
0.07473071
-0.02452431
0.046382345
0.0890874
0.04220106
0.026486102
-0.0012096268
0.06706183
0.036257938
0.022001319
0.042911995
-0.05734873
0.00815771
0.040136207
-0.081453316
0.08826334
0.27427176
0.0322082
-0.082149036
0.0075377417
-0.013952342
0.08900747
0.0242635
0.07530608
0.007366342
0.075082846
0.0066581983
-0.0017067494
0.116735265
-0.05396742
0.017560385
0.0131423315
-0.009728589
-0.013004936
0.039183952
0.012436789
-0.024121597
0.07332378
0.06899828
0.1071969
0.098442264
0.28414455
0.053267617
-0.0131942695
-0.0067942804
0.081600204
-0.020509567
-0.0015693397
-0.026460731
-0.0013001752
0.09910478
0.12566419
0.02094412
0.08759458
-0.03891426
0.0027848661
0.031572796
0.10811911
0.0860815
0.052000273
0.057041947
0.14658892
0.053056188
-0.019830614
0.011996929
0.012337739
-0.013981127
0.025562685
-0.059160657
0.023773337
0.012905847
0.13405718
-0.06315456
-0.015527259
0.046064317
-0.019524286
0.081867225
-0.04312496
-0.09685886
0.0038736742
-0.025605662
0.023674397
-0.013791664
-0.014181658
0.038003735
-0.33489412
0.100914314
0.12767267
-0.012713849
0.05383227
-0.055641215
-0.06704133
0.0037389873
0.042559586
-0.010697337
-0.07479693
0.03307709
-0.042348377
0.06252877
0.0030617379
0.036725298
0.02697812
0.017307395
-0.04505239
0.02012396
0.009421413
-0.05755744
0.0918661
-0.07689254
-0.07924716
0.09074296
-0.029804198
0.069809355
0.014330284
-0.00047391417
0.019172097
0.3330565
-0.049873076
-0.09514319
-0.012690223
-0.03659054
0.019809326
-0.03858604
0.07851134
0.050464943
0.08562613
0.08573678
-0.0006947196
0.041458048
-0.005961203
0.12154679
0.050488483
-0.04275002
0.025829138
0.08918988
-0.00072851387
-0.054214064
0.06985445
0.047213007
-0.017297873
0.00011054657
0.018329045
0.06743668
-0.00010050483
0.013443893
0.019849204
0.049909256
-0.009300563
0.05320189
-0.11446315
-0.007046167
0.063613564
0.01982679
0.033489592
0.0027158856
-0.15127839
0.08706245
-0.04329622
0.037680224
0.062317096
0.031435538
-0.018333197
0.0418264
0.13712412
-0.086756185
-0.0020312658
-0.0068243467
0.02185495
0.010468714
0.1949323
0.01835701
0.18827526
0.11418167
-0.06953213
0.019612515
0.16546184
0.14306766
0.027188493
0.0064306976
-0.030324556
0.047947742
0.088587746
0.02906773
0.09099437
0.05113775
0.07229094
-0.029066386
0.043603644
0.0014629458
0.014976251
-0.029365333
0.040717255
0.08929475
0.053939965
-0.07584481
0.030954208
-0.031910583
0.10392309
0.004050642
-0.017796993
-0.01726132
-0.007298771
0.023425208
-0.22532496
0.31157327
0.013303054
-0.07032198
-0.18365686
0.040994942
-0.041640565
-0.054969266
0.1170674
0.04183383
0.03553563
0.029049197
0.019600453
0.006440106
-0.023714727
0.06560001
0.10069469
-0.037364505
-0.1066273
-0.012278492
-0.0038556943
0.14545119
0.015451202
-0.047443204
0.27387995
0.123163894
0.027485337
-0.0054067117
0.020831313
0.028138118
0.04198668
0.033456724
0.07459539
0.08064647
0.08905469
0.06492415
0.03400341
0.09783997
-0.031643383
0.18948086
-0.13612509
-0.05161371
-0.022203412
0.16376162
0.3172455
0.03257304
-0.020236483
0.036029298
0.015752172
0.095140584
0.07547754
-0.076817535
-0.093586974
0.031086065
0.30151066
-0.03331518
0.029754046
0.020056088
0.060068086
-0.017054783
0.06396138
0.0014676761
-0.021873487
-0.013142243
0.05793886
-0.014949029
0.03519991
-0.029446218
-0.01818269
0.0054255174
0.029273486
0.3378484
0.4129306
0.028720152
-0.013813237
0.052818567
-0.04923407
-0.0014513785
0.094243445
0.056779664
0.13635032
0.03672865
-0.0137950545
-0.01928218
0.10080631
0.03630639
-0.09929452
0.015567745
-0.05428906
-0.009698309
-0.0021236995
0.1582167
0.0015477653
0.0032985122
0.07017996
-0.022527296
-0.071408756
-0.0017852446
0.010750327
0.13229942
-0.001966532
0.13552304
-0.0028826785
-0.08852709
-0.016708741
0.36820218
0.035073724
0.11299666
0.0612542
0.10831993
-0.0015171159
0.081855066
0.058307596
0.15481628
