0
-0.027712367
0.021844978
0.016577838
0.04727786
-0.014353945
0.047222927
0.08563522
0.033218063
0.020334229
-0.15430875
-0.019582508
-0.028764103
0.07402437
0.025353462
-0.028950378
-0.050428726
-0.12497867
0.037817426
0.015417164
-0.060853392
0.0051437714
0.04019545
-0.042048767
0.04855131
-0.0030787261
-0.02527858
-0.025497984
-0.061341193
0.09733053
-0.04014613
0.04069324
-0.094389014
-0.0260765
-0.20292722
-0.01668527
0.05278104
-0.06846005
-0.023097686
0.0008136817
-0.061191484
0.013675121
0.07776241
-0.01405437
-0.0023014545
0.012577004
0.051372502
0.026164386
-0.07494702
-0.0014401472
0.015989609
-0.022600243
0.28401545
-0.05013923
0.012843748
-0.021888385
0.056263387
0.007035683
0.02668282
-0.030695565
0.112216376
-0.065957025
0.031741448
0.056382883
0.00704214
0.09043142
-0.0023705435
0.01758328
0.11918246
0.04274091
0.1534533
0.03928563
-0.107852064
0.053188093
0.06676626
-0.014351821
-0.019738223
0.11628053
-0.011246524
-0.039325166
0.008741127
-0.016054437
-0.0081679905
0.111355826
-0.0284456
0.061935406
0.04068081
-0.27461538
0.08117742
-0.031072807
-0.033738017
0.056126248
-0.02324423
-0.08321393
-0.06600633
0.005241259
-0.038595848
-0.023428643
0.17560749
0.092280425
0.04290244
-0.027945597
0.045716256
-0.020771766
-0.0041538845
-0.033791997
-0.0690524
0.027551271
0.032039993
-0.06972083
-0.018829923
-0.04915141
0.11502803
0.040138263
0.017561967
0.044177286
-0.10739247
-0.06941616
0.059868112
0.0073866635
-0.025851693
0.00074548397
0.019847384
0.09481865
0.16477089
-0.0029880155
-0.061599705
0.043487675
0.069348484
0.011532618
-0.0012790579
0.06491361
0.013743235
0.0072389445
-0.026822656
-0.030456945
0.013118197
-0.03200753
-0.00785574
-0.08487417
0.014271237
0.0032783034
0.072687075
0.00786771
-0.11875641
0.044722382
-0.04923347
-0.04907216
0.054328486
0.10642014
-0.034362063
-0.08855405
-0.055756878
-0.027963873
-0.03829272
-0.13065584
-0.12819113
0.022901349
-0.0161507
0.061079856
-0.07217179
-0.05633342
0.1496951
0.071684495
-0.025068814
0.03306691
-0.020639874
0.03757464
0.0022940156
-0.0033853836
0.03559269
0.07691648
-0.02600318
-0.08724354
-0.024412846
-0.04331601
-0.101350114
0.012019131
-0.0049915444
0.004601733
-0.0026415728
-0.14621691
-0.021912303
-0.00557994
0.030022124
-0.03267039
-0.07060353
-0.015520947
0.3425959
0.076277986
-0.014326395
-0.0063104327
-0.04443009
-0.048636787
0.07707633
-0.06460955
0.04969354
0.04994864
0.060909476
-0.038296416
-0.048381176
-0.027212473
0.04719536
-0.0009795702
0.048744727
-0.018320637
-0.0017087185
-0.12340688
0.088535406
0.047256924
0.013849769
0.05188657
-0.14287001
-0.0012494145
-0.014806445
-0.022806674
-0.064467795
0.0135959
0.008118466
-0.090455994
-0.01752831
-0.034326095
0.06006929
-0.08780085
0.0028271955
0.016317146
0.045864847
0.042268213
0.03448466
-0.015335407
0.05265065
0.049633145
0.027117247
-0.08916587
0.003251346
-0.0016458704
-0.032183256
-0.0128927985
0.12357918
-0.037297506
-0.059975483
-0.019854633
-0.073667765
-0.03377344
0.07042683
-0.07104261
0.047353312
-0.058072228
-0.091052614
-0.07034019
-0.011953885
0.012562894
0.0026563464
0.012565782
0.022591885
0.046321604
0.018377325
0.022507686
-0.06551199
0.016404375
0.060704462
-0.032169092
-0.039454237
-0.010933628
-0.03058422
-0.049022444
-0.11424404
0.009022742
-0.028764116
0.07161512
-0.12561038
0.2549493
-0.11645764
-0.12317794
0.016552512
-0.05775001
-0.0055025117
0.030352967
0.007017041
-0.044666186
-0.02044391
0.027792705
0.11520713
-0.024046382
0.04066914
0.014481298
-0.07584245
0.14128812
0.024785995
-0.101441
0.003251575
-0.055233747
0.085544616
0.021193527
-0.017157206
-0.024107113
0.0053765457
-0.028880723
0.09789758
-0.06493309
0.028900169
-0.05934518
0.17227426
-0.022571191
0.0053385356
0.018234253
-0.027524916
-0.026820406
0.0047979895
0.08730429
0.13165155
-0.014869322
0.10592179
-0.15008661
0.015885178
-0.05320638
-0.031604346
0.1920779
0.004510211
-0.13389091
0.021385992
0.050963573
0.02010789
-0.0056989635
0.018249705
-0.019210182
-0.048526574
-0.012514778
-0.020735
0.13922791
-0.0067932867
0.01805361
-0.0031755841
0.052268542
-0.04278507
0.06334325
-0.0033161421
0.00032578764
0.06754017
-0.046378653
-0.018371033
-0.008777336
0.00332025
-0.006768029
-0.021861723
0.00197041
0.02023276
0.035810165
0.042631663
-0.05889974
-0.031181874
0.00739768
-0.059312776
-0.0027452507
-0.107918
0.05072946
0.014538027
-0.0010480847
-0.2515393
-0.084604226
-0.0578814
0.018303435
-0.06117697
-0.008615593
0.12040811
-0.1604917
0.010129652
-0.050284725
0.04093561
-0.021001654
0.0051176604
0.019730221
0.0016479705
0.045785666
0.1657112
-0.008387414
-0.0144878635
-0.038337607
-0.20956202
0.005491498
-0.040825948
-0.09908799
-0.04426507
0.31569293
0.021347465
-0.13326487
0.03967464
-0.034100156
0.024384242
-0.05105441
-0.0021950891
-0.036155097
0.060760126
-0.010057651
-0.01116501
0.07192322
0.13248408
-0.026508601
0.012425643
-0.029111298
-0.043766525
-0.06475869
-0.03526392
0.02546447
-0.018092625
-0.006060855
0.07421972
-0.008116997
0.015742576
0.09353021
0.0047607413
0.027013527
-0.008427749
0.024559323
0.019268189
-0.022281464
0.02487766
-0.01230735
-0.025318619
-0.01759533
-0.041893236
0.043720927
-0.17490602
0.07726349
0.13361184
-0.20021975
-0.025082408
-0.023417765
-0.0030370862
0.01801508
-0.031483736
-0.1276071
-0.008863938
0.032289393
0.039705362
0.042884108
-0.19649227
0.14346859
-0.049948547
-0.0093818065
0.008835452
-0.050771035
0.096677005
0.007305186
-0.09170796
0.08166563
-0.052457895
-0.033111453
-0.028559249
0.057994723
-0.25895882
0.033880122
-0.036076624
0.045327812
-0.044020012
0.050275937
-0.033153657
0.012890038
-0.0072407015
-0.038784944
-0.0073313587
-0.01317161
-0.056810685
-0.08066635
0.0019334345
-0.005542501
-0.026082003
-0.0509454
-0.1234838
0.072207466
-0.0249462
-0.059722055
0.05283073
-0.042432133
0.034962777
0.07503148
0.021766163
0.025672046
0.045575
0.012838313
0.01244636
-0.047023874
0.028739633
0.00043005924
0.058868498
-0.027774654
0.089825384
-0.033935994
-0.013846519
-0.0873427
-0.044006255
-0.058508523
-0.005286252
0.07029889
-0.005322354
-0.026072456
0.018883703
0.04665686
0.045418866
0.008882951
-0.029259417
0.011934887
0.12343116
-0.042461988
-0.004868199
-0.007388238
0.06409066
-0.017795617
0.21809594
-0.06726381
-0.12234999
0.00051027676
0.18490708
-0.25293228
-0.04662025
0.025927318
0.042140406
0.031556398
-0.14277664
-0.059846785
0.046949632
-0.001970624
-0.026876507
0.11509259
0.107042246
-0.07440171
-0.062565215
0.022318823
-0.0029330305
0.0057119466
-0.06464635
0.0063126967
-0.016350565
-0.11146321
0.054226782
-0.042911544
-0.00012914586
-0.11310445
-0.04948979
0.04738385
0.038761992
-0.043804012
0.042502034
-0.0119442735
0.08694431
0.016594399
0.058573797
-0.023286957
-0.023785157
0.12677212
0.023689635
0.0032281384
-0.009214275
-0.08083489
0.036853556
-0.14521785
0.007292249
-0.079904854
-0.018286455
-0.057823006
0.045150083
-0.054392256
0.013477514
-0.07834409
-0.049770586
-0.0287477
0.018197872
0.0003525628
0.10630001
-0.04693956
-0.020317746
0.123117834
0.07160394
-0.08891954
0.03584071
0.007134261
-0.030298583
-0.07229811
0.053768028
-0.030037284
-0.070713855
0.08792893
-0.21654233
-0.26084375
0.03864007
-0.02667618
-0.10417525
0.017654728
0.11279572
0.020273922
-0.07177869
0.17300923
0.02818868
0.030607237
-0.082783334
0.037974276
0.16246964
-0.0065980847
0.035202187
0.008650639
-0.027875736
-0.06730841
-0.040281314
-0.052656088
-0.015255614
-0.0061100293
0.05566925
-0.021036299
-0.06758181
0.020174745
-0.015474021
-0.089822024
0.003140144
0.008967232
0.103777796
0.020578025
-0.06280919
-0.0065479926
-0.010599528
-0.105580755
-0.029373853
0.07199586
0.03229121
-0.23497684
0.007423024
0.082405895
-0.045266267
-0.04326562
-0.06850355
-0.039713524
-0.0729555
-0.06009832
0.04273186
0.080544025
-0.028930023
-0.004694915
-0.03169145
-0.045885038
0.24082807
-0.00033730347
-0.006610676
-0.006950926
-0.049895186
-0.10713448
-0.10182217
-0.01275628
0.01638396
0.16821384
0.02315893
0.025906576
-0.02605005
0.016257055
0.036466163
0.03350729
0.027826896
-0.068357065
0.092830755
-0.015504936
0.17272475
0.2564774
0.021412393
-0.00724703
0.0041348906
0.11621297
0.010650319
-0.06004906
0.03643216
0.100607924
0.14565048
0.061486933
-0.11191447
-0.039836228
0.08345466
-0.02215189
-0.01587598
0.028266147
0.010474259
0.0050053108
-0.012261215
0.22595347
0.060370374
0.016272994
0.02222132
0.002428796
-0.011138648
-0.019893836
-0.003492761
-0.25723353
-0.05041155
-0.020882843
-0.11017203
-0.021459676
0.04564103
0.037965793
0.06585143
-0.040706113
-0.011827556
0.028569322
0.0087381285
0.07306735
-0.012224641
0.011212547
-0.035774816
0.028439121
-0.024877256
0.031309877
0.032977857
0.052470252
-0.014095649
0.05956013
0.024322905
-0.0027995554
-0.022041943
-0.018349173
0.00094608305
-0.010613434
-0.0036342922
0.02466238
0.022022804
-0.041658837
0.031637516
-0.21702985
-0.016904458
-0.00053711835
-0.0046761744
-0.06466823
0.14599736
-0.055221733
-0.09363299
0.031381488
-0.036142454
0.041351423
0.018749863
0.056387153
-0.02013889
-0.063608415
-0.012826287
0.1671051
0.023460899
0.0562203
-0.010353665
-0.16284046
0.0077277697
-0.03345025
0.012955972
-0.006320109
0.082884595
0.0020915212
-0.050196093
0.04021438
-0.055927113
0.03836016
-0.066565394
-0.019021044
0.03718164
-0.22341871
-0.14230542
-0.057851043
-0.001100774
0.039150454
-0.4052767
-0.03414563
0.046352223
-0.027608829
0.003149004
-0.004164861
0.009247121
-0.015201643
-0.11944868
