0
-0.026683245
0.031952985
0.22246297
0.045926586
-0.15660448
0.116103515
0.13002215
0.02000277
0.06812803
-0.44492635
0.0069847386
-0.021123981
0.020097373
-0.03015638
-0.0112914415
-0.032771494
0.0071192468
0.09179731
0.013038966
-0.013344281
-0.07070378
-0.001125712
-0.0005762234
-0.040420506
-0.014398245
0.028534848
0.013851768
-0.01648615
0.03749641
-0.021183942
-0.0070034713
0.00233212
-0.023729557
0.024476985
0.010309747
0.013561098
-0.0073446524
-0.01897501
0.014173816
0.020045942
-0.036882956
0.028462095
-0.024283318
0.0053541358
-0.40961152
0.40259933
0.0074529303
-0.017904436
0.08060175
-0.011315405
-0.023650507
0.4301404
-0.012952342
-0.021505136
0.013183987
0.0052833776
-0.006181663
-0.00069374667
0.04236102
-0.16689306
-0.02384575
0.015808497
0.0021757088
0.0082257595
0.12764151
0.032832168
0.07354535
0.009608522
0.014903171
0.10115527
-0.008846874
0.80706775
-0.007870434
0.012362472
-0.52778023
0.00011514242
-0.0017294841
-0.041030787
-0.010096948
-0.018834922
0.0074833706
0.0145189
0.07612147
0.0016223566
-0.8359413
0.38961545
-0.17678738
0.09464751
-0.009343307
0.0028307955
0.02132732
-0.028499186
-0.08501349
-0.06577665
0.011799295
-0.022146037
-0.019695051
-0.006887016
-0.025336355
-0.008067367
0.021524148
-0.04399729
-0.02359818
0.014596357
-0.0052848924
-0.019747403
-0.034227453
-0.060060766
-0.11166248
0.015166163
0.05960484
-0.008869496
-0.036710404
-0.000790624
0.3144946
-0.35248864
-0.043826986
-0.005241574
0.0070710983
-0.015165914
0.022775125
-0.007820191
0.041409146
0.058214843
-0.015611471
-0.012061157
0.043106113
-0.014354684
0.0066403067
0.003251111
0.06077809
-0.012145589
-0.030190917
-0.018210953
-0.013815188
0.008312874
0.021329446
-0.008920854
-0.05330135
-0.020792682
-0.0026610615
0.020176446
-0.00471655
-0.088447236
0.9461262
-0.062211346
0.020058474
-0.0015076534
0.012449923
0.012401998
0.0020958781
-0.0627204
-0.008534194
0.83583987
0.010777702
-0.5086037
-0.012164086
0.009498296
-0.015348143
0.017044531
0.038177017
0.01226079
0.040631507
0.0028681783
-0.0055123395
-0.012403658
0.0003733032
-0.015839897
-0.027373357
0.008777055
0.027049957
-0.045243997
-0.0012276776
-0.018742403
0.013798071
-0.070084795
-0.007602419
-0.020267423
0.01090141
-0.032244623
-1.0277425
0.0022792667
-0.008416036
-0.04264024
-0.017093986
0.037783917
-0.03111237
1.3603177
0.0015163164
-0.033413984
-0.014002229
-0.026985886
0.018055808
-0.088681154
-0.016927391
0.0075698406
0.014501189
0.020893153
-0.023171574
-0.032215428
0.053371545
0.07504623
0.0027111669
0.052413676
-0.01713114
-0.053717654
-0.110697396
0.39415982
-0.010481816
-0.022306299
0.010246128
-0.11661001
-0.023211356
0.028134527
-0.0028671809
0.017263748
0.016342033
-0.020965917
-0.0384435
0.034846805
-0.070524506
-0.06108773
-0.0026349782
-5.934521e-05
0.006819179
-0.020755794
0.06480141
-0.0013981225
0.02008468
0.017308256
0.04406183
0.08408069
0.025835713
0.015007713
0.06484627
-0.5060523
-0.058050286
0.16721039
-0.01297817
-0.0025272109
0.011856911
0.83013505
-0.043560665
0.00919257
0.03176932
-0.031931885
-0.02721323
-0.67922664
0.030572237
-0.00090900157
0.8968099
0.55708516
-0.013587426
0.020153755
-0.0250319
-0.041420735
-0.008446666
-0.029642776
-0.02072061
-0.005446123
0.008177928
-0.019150177
0.015153288
0.65846235
-0.031330515
0.0067758234
-0.022015462
-0.014955542
0.102340065
0.0010111402
-0.0010732346
-0.055261567
-0.5123336
-0.023544017
0.005566648
-0.03478031
-1.3447148e-05
-0.043831155
-0.03112357
0.52614415
0.042476144
-0.039489977
-0.0034233879
0.013745172
-0.041877683
-0.059657212
-0.04924337
0.046619702
0.017765462
0.0154796755
0.0077051837
0.004562394
-0.010947097
-0.00049554557
0.036335714
0.028683309
-0.03340975
0.031016888
0.005649416
0.01935857
-0.06252793
0.5762179
0.009246045
-0.010935073
0.043793254
-0.0077629657
-0.03558245
0.045241985
0.017795565
0.06258261
-0.033927076
0.028780537
-0.13015299
0.016972844
0.007624148
0.004817419
0.034408852
-0.018332465
-0.12648147
0.006324845
0.18450291
0.014748384
0.037240244
-0.023448156
0.008502688
0.0466717
0.0005369482
-0.00928768
0.03162964
-0.0077603688
-0.012180059
-0.000568444
-0.006839726
0.0132614365
0.08097514
-0.006302033
-0.024460694
-0.007866601
-0.039195642
-0.019010361
-0.1912378
-0.04180306
-0.0865233
0.008095142
-0.012069744
0.45077154
0.06501602
0.022359144
-0.034607608
0.023185026
-0.0028843547
-0.004173619
0.14067765
-0.034813937
-0.0011928183
-0.032372247
-0.013661217
-0.29523987
0.007475857
0.01103497
0.032001365
0.03159967
-0.08181144
0.0073621636
0.041092277
-0.01805286
0.004156207
0.006070409
-0.011102257
0.875056
-0.015514626
-0.025485529
0.021881755
0.002857598
0.03428615
-0.0030834752
-0.031311516
-0.01808637
0.02041927
-0.033742208
-0.049730863
0.026836619
0.29012132
-0.043151494
-0.13786067
-0.03653737
-0.029643377
0.016621983
0.0586303
-0.5003835
-0.0053719715
0.06352405
-0.018450335
-0.03749999
0.04708255
-0.0018536255
-0.015225624
-0.019895134
-0.50226885
-0.0021863969
-0.020762391
-0.4976696
0.013433658
0.02111621
-0.03725603
-0.013007795
0.013137222
-0.027064446
0.039385416
-0.012709336
-0.057542447
-0.013617762
0.029886244
0.01592233
-0.13191628
0.29391804
-0.056444604
0.019660242
-0.05156092
-0.034761094
-0.0087941205
-0.025352558
0.070220314
0.008291836
-0.15399918
-0.011024946
-0.040585034
0.015525227
0.011024073
0.019841876
-0.030977782
0.046771
0.021300633
0.023364587
0.0051527
0.0063280333
0.108455904
-0.0065407543
0.022356564
-0.019921929
0.0013402156
-0.012026547
0.0012740941
-0.009133203
0.01441001
0.018456921
-0.011014667
0.6398577
-0.028811617
-0.8477241
0.007993324
-0.021922432
0.045947157
-0.007567357
-0.82822764
-0.1015234
0.00904606
-0.00780074
-0.08406888
-0.004432044
-0.010511163
-0.0032263885
-0.06235631
0.0005315009
-0.012154779
-0.0052724904
-0.02800302
0.8323419
0.053747926
0.021398649
-0.037018523
0.323594
-0.014865491
0.020260783
-0.03141601
-0.02204567
-0.018608294
0.0070017576
0.5890933
-0.017941352
-0.029100822
-0.05785598
-0.02585182
0.007888466
0.00511009
-0.15828238
-0.04056892
0.022492649
-0.079852715
-0.1643885
-0.05469411
-0.0033681039
0.013663137
-0.01590162
-0.063417986
0.012211153
0.007854759
-0.013289418
0.017069913
0.8850235
0.0080346055
-0.01693919
0.0035680756
0.0103960745
0.016756663
0.06346549
-0.01456008
1.0669626
-0.120696165
0.013122348
-0.02806237
-0.009515858
-0.83258194
-0.023730708
0.05896358
0.0020151713
0.93654424
0.002071054
-0.07834385
0.0407729
-0.030879077
0.009126093
-0.39167556
0.08864706
-0.03866064
-0.017861778
-0.002829014
0.042631872
-0.006506391
0.6826575
-0.016270591
0.026488258
0.02282813
-0.004031823
0.017515475
0.023108598
-0.03459342
-0.019264245
-0.019924782
0.0069697937
-0.029473728
0.51680017
-0.024772754
0.03449865
0.014749528
0.122590266
-0.004478303
0.01650855
0.0099466145
-0.0965658
0.0122708315
0.0016088862
-0.020670412
-0.013926312
-0.02643948
0.030813964
-0.19355169
0.009389366
-0.23842332
-0.019677335
0.0128213875
9.7383076e-05
-0.058261495
-0.008644339
-0.0039117984
-0.0046567107
-0.005216677
-0.0041426374
-0.024944058
0.45282018
0.010034091
0.015320429
-0.020897683
0.082186796
-0.038998377
-0.022153545
-0.13649386
-0.026267448
0.006244623
-0.056492444
-0.01285629
0.097711794
-0.016079616
0.026802836
-0.0046009356
-0.09080817
-0.017368851
0.2467107
-0.03094539
-0.014060399
0.37879202
0.023529027
0.0070587615
-0.11494358
0.02848302
0.05515019
-0.0007631639
0.011286479
-0.030535406
0.016868828
-0.01873993
0.014562525
-0.06937866
0.015994025
-0.009132016
-0.02441213
0.016222207
-0.06973011
-0.010872678
-0.02360978
0.0082409885
0.008380466
-0.10305221
0.04081326
0.029322468
0.009548829
-0.0010668952
-0.0019683107
-0.033369094
-0.033077423
-0.06067708
0.014557309
-0.24648574
-0.009577241
0.018895749
0.00914968
-0.24914807
-0.4188296
0.025328878
-0.020888582
-0.006185213
-0.013496438
0.016336262
-0.025272144
-0.12693144
-0.0052577765
-0.030973315
0.7888503
-0.91716504
-0.016982507
-0.017823797
0.50670654
-0.009552587
-0.24196959
0.013291736
0.36284664
-0.016806012
0.0101197995
-0.0085457135
0.023644501
-0.066610634
0.011442448
0.019344617
-0.03833491
0.010175613
0.024732318
-0.04994656
0.0054220594
0.23550862
-0.011222306
-0.0109860515
-0.014201623
0.28490677
0.013631695
-0.032518413
0.004713828
-0.010273262
-0.05498051
0.015994564
-0.0037104236
-0.4380904
0.025974182
0.6312727
-0.085746534
-0.0046677473
-0.020526139
0.002080247
0.5238356
0.30085555
0.010805508
0.039453775
0.024051942
0.014325003
-0.026255928
-0.009471767
-0.014246037
0.28904364
-0.024589129
0.0038478628
-0.1511558
0.010355299
0.035341945
0.03497277
0.022304745
-0.0012284571
0.012404422
0.023732705
0.011166794
0.0053183283
-0.07902317
0.0067760535
-0.006980543
0.021180803
-0.023955196
-0.03396065
0.086907804
0.42530903
0.009998567
0.027970713
0.019149866
-0.0004305169
-0.03530691
0.048140902
-0.010532201
0.029194107
0.0046083406
0.0005689642
0.018909587
-0.0084638735
0.013627894
0.0012817581
-0.020658085
0.010860148
-0.0033604992
0.003855729
0.06627546
0.4415404
-0.020517968
-0.06280032
0.0016754841
0.020025795
0.04076529
-0.029659614
-0.0058467877
-0.26059788
-0.026609575
0.054528333
0.02293772
-0.025660302
-0.016424716
-0.0034322692
-0.032726873
0.51869535
-0.015519938
-0.088141285
-0.016319105
0.0028073555
-0.026933763
0.012419057
0.012064592
0.02688313
0.01357433
0.06102412
-0.024265006
-0.49153242
-0.27251136
-0.019532427
-0.007316327
0.067173705
-1.2152733
-0.025434243
-0.033608783
-0.11019083
-3.166241e-05
0.0019794733
-0.016118212
-0.031323854
-0.4440277
