0
0.006302664
0.022525363
-0.0044005667
-0.01201326
0.030247834
-0.0014124536
-0.0059276302
-0.027094051
0.04453493
0.0014901198
-0.017000953
0.009073437
0.12937802
-0.0075146696
0.010845692
-0.033439115
0.09356576
-0.033299517
-0.0024432584
0.012443025
0.015074203
-0.0016214346
-0.050334323
0.041216385
-0.05254999
0.020557104
-0.031526666
-0.027057812
0.086099476
-0.054258525
0.027793584
-0.004931965
0.06915462
0.015490164
-0.0022848744
0.026497696
0.0010816763
0.032101594
-0.026019285
0.031739093
0.0035333766
-0.035690375
0.039696377
0.014892177
0.037407093
0.0053480742
0.0022227245
-0.055964466
-0.04129094
0.04219362
0.04848006
-0.050981104
0.054757692
-0.05216739
0.08216427
0.028051324
-0.018752038
0.0032706938
-0.012907573
0.07188388
0.020205475
0.0024392572
0.016738348
0.0123893935
-0.044893812
-0.05037407
-0.02377416
0.0140578
-0.019557515
-0.11751987
-0.049928736
0.0033122245
0.021050226
0.056329142
-0.03946068
-0.006900483
-0.03239796
0.041338455
-0.0028641531
-0.021041777
0.0044750134
-0.061979808
0.17786475
0.014460363
0.031205118
-0.016505195
-0.18175194
-0.022573425
-0.011438059
-0.030468343
0.03232534
0.14802781
-0.03533817
-0.050198887
0.005734887
0.08549332
0.0021130035
0.060725164
0.05088406
0.07775644
-0.019517671
0.019402526
-0.046367016
0.013463876
0.0077289157
-0.018335957
-0.016875794
0.042896822
0.06589478
0.024840597
0.03435243
-0.00960436
-0.06577572
-0.003913429
0.024390114
-0.06287838
-0.0038061554
0.0073326505
0.00050875085
-0.04984237
-0.0035173555
0.009349828
-0.04695438
0.06410064
0.056854732
0.026227867
0.05223481
0.022974506
-0.0014380865
-0.025814826
0.019126724
-0.03345906
0.025598321
0.031146877
-0.015069064
0.023120835
-0.0011841535
0.03724596
0.058614578
-0.0046164603
-0.019214729
0.07075682
0.0063008633
-0.029018106
0.041454814
-0.012492454
-4.385272e-05
0.021828959
-0.012715588
-0.038785554
-0.03378374
0.000119930286
0.029075809
0.015940186
0.10164282
-0.012418066
0.018737094
0.043735176
0.09249134
-0.062353812
-0.0004832589
0.02018429
-0.07463099
-0.0582468
0.056161486
0.03033875
0.032629274
-0.042584397
-0.012746868
-0.026153993
-0.0054452154
-0.046281736
-0.02881543
-0.006032237
-0.010861575
-0.045118507
0.01806723
0.036212258
0.053391036
0.056484587
-0.021669429
-0.023129737
0.012951353
0.0047315476
-0.003558263
0.04302651
-0.00960611
0.1012313
0.0654829
-0.017327342
-0.005799006
0.035588812
0.037062608
-0.00987314
-0.04183321
-0.02043285
0.023650229
0.028975831
0.051231567
-0.061614223
-0.034208145
0.0171384
-0.032884456
0.008459523
-0.040072497
0.047144875
-0.01274483
0.005378653
-0.0044136015
0.01361068
0.03774271
0.024995083
0.02887763
-0.0105146
0.022590056
-0.06836026
0.017714158
0.0743244
-0.01853533
0.035954032
0.027584812
0.0035578045
-0.044940326
-0.012656109
-0.016052566
0.029971857
0.017179018
0.04335962
-0.043499596
-0.109889604
-0.042245187
0.020880226
-0.07082118
0.011930967
-0.004711877
-0.037140924
-0.01284625
0.003231891
-0.026598763
-0.07332172
0.008773382
-0.026547635
0.030629825
-0.052308016
-0.0024790706
-0.021035926
0.027542584
-0.10433992
-0.058858104
-0.016476288
-0.04092431
-0.0016213151
-0.014405422
0.034339774
0.028631557
-0.0035077762
-0.022130495
0.013520438
-0.008238802
0.18808956
-0.11677388
0.044631425
0.060707334
0.012159332
-0.007690884
0.02979276
0.006408657
-0.0004990642
-0.006502686
-0.07446651
0.021952419
-0.10354487
-0.16727127
-0.04438689
0.020021036
-0.025417196
-0.035447836
0.11985656
0.023364581
0.09797082
0.0046266243
0.037478916
-0.08777654
0.0058275815
0.040483464
-0.010358101
-0.023237504
0.045261506
-0.058669277
0.033939797
0.01405643
0.042828135
-0.033644713
-0.006512876
0.016895609
0.11869819
0.016877305
0.020302417
-0.05736709
-0.062396143
-0.020366378
-0.014241459
-0.004499406
0.033205386
0.00055065914
0.06314571
0.041380066
-0.0013712307
0.11406695
-0.0046400772
0.024774618
0.048638843
-0.02954053
-0.046417296
0.0134638725
0.010024573
0.15864135
-0.029026119
-0.0043285755
0.008523087
0.04562899
-0.005507305
0.121425435
0.0017725489
-0.06066659
-0.02819757
0.007078027
0.05058049
0.08469948
-0.0052510886
0.004288658
0.0044997176
0.02472243
0.04270986
-0.0023498046
-0.026182571
-0.02426192
-0.0056535127
0.04072495
0.006658539
0.015021743
0.045159627
-0.015144678
-0.021118086
0.13224046
-0.015696147
-0.019667806
0.028351683
0.024643911
-0.011190616
0.025729124
0.009191259
-0.05983795
0.018244289
0.007316648
0.023023844
0.0019788463
-0.16179842
-0.052622933
0.00397781
-0.03346159
-0.07338826
0.03437542
0.037106063
0.010758095
0.014364542
-0.048695583
0.008977564
0.022779197
0.05567087
4.162849e-05
0.0626065
-0.0014420028
0.13024336
0.06428057
0.013312273
0.07023895
-0.19014248
-0.039070427
0.027827432
0.037247527
0.040055014
0.19370504
0.0068071485
0.032003935
-0.01817492
0.016110176
-0.048154358
-0.029134663
0.012434688
0.035875592
0.02333643
0.012103435
0.00086748373
0.03152264
0.10635446
0.024971697
0.029389976
0.047340076
0.03243767
-0.08737555
-0.009873885
0.02154512
-0.006207066
-0.0324169
0.044395655
-0.04656229
-0.0072575063
0.04757162
0.05398925
0.0039330325
0.06003007
-0.059941113
-0.03229774
0.040125996
-0.026414867
0.033111967
-0.0077615986
0.08525493
-0.028567046
0.040569868
-0.10252581
-0.0041228505
-0.058906116
-0.03131647
0.014164111
-0.035210617
-0.045414764
0.00294734
0.024831492
-0.11189103
-0.020307934
0.045266416
0.011280361
-0.0526293
-0.02340279
0.0050997906
-0.024052821
0.025014516
0.012481503
-0.057100832
0.071763426
-0.014734995
-0.000892225
0.026785208
0.08035663
-0.058785256
-0.01708376
0.007798786
-0.059113164
0.036932893
0.031152355
0.03712463
-0.015601155
0.010350172
-0.01145098
0.0043594213
0.034498718
0.06598974
-0.09232306
0.03891089
-0.0063875574
-0.003487281
0.055147048
0.06473063
-0.03513123
0.033379473
0.05197252
0.026436409
-0.03464096
0.04291688
-0.0051777842
0.12399688
0.013213656
-0.038178325
0.015522339
0.043308143
-0.036319874
0.027938826
0.047519207
-0.029850299
-0.040860426
-0.018547783
-0.029443568
-0.011990255
-0.06391597
0.02987868
0.013118956
0.0112202745
0.020568484
0.009090908
0.033759207
0.075357996
-0.016440371
-0.025447331
-0.069846235
-0.028223323
0.051933415
-0.041673552
-0.03204465
-0.05000367
0.008776732
0.0030031377
0.008782908
0.06607219
0.0370406
-0.05927853
-0.015440413
-0.049984373
-0.05366907
-0.015728217
0.021721879
-0.12983082
-0.016981704
-0.0013363657
-0.0451186
0.07643587
-0.16848326
-0.06319688
0.028924186
0.035931516
-0.0031703438
0.06921917
-0.027326819
-0.05236934
0.009145844
-0.0026671998
-0.008675709
-0.024614519
-0.023128072
-0.029197562
-0.07095689
0.012323623
0.007713464
-0.040393326
-0.022411583
-0.048520725
0.07282928
-0.011696281
-0.052284896
-0.011736837
-0.06704186
-0.006330843
-0.0048679756
-0.007572645
-0.009758493
-0.03601411
-0.0031238094
-0.004005743
0.010908685
0.029637357
-0.021571698
0.009961114
0.041834656
-0.1723255
0.016984848
-0.02519523
-0.052644793
-0.01123112
-0.08562698
-0.06677221
0.015411908
-0.0037371493
0.03951208
-0.04212586
0.07324402
-0.009023536
0.15136795
-0.051877912
-0.014118816
-0.03265433
0.020660732
-0.0022020766
0.004384174
-0.04961793
-0.049753793
0.00041003665
0.021162724
0.011235245
-0.031630214
-0.14471586
-0.08532172
-0.07842039
-0.0040622624
0.015014157
0.02451215
-0.01563158
0.06163892
0.017231533
0.01669455
-0.049605865
0.0041386173
0.032580357
0.006664009
0.07111881
0.16283588
0.016857503
-0.010844092
0.03418937
-0.028122628
-0.038332723
0.004946973
0.016770603
0.0140752
0.060154237
-0.019275514
-0.059233032
-0.016107153
0.0003982137
0.015882285
0.081914134
0.020538708
0.024034912
-0.0026034336
0.07051699
-0.07027705
-0.04923579
0.029610591
-0.17149204
-0.16509734
0.06748961
-0.005691466
0.043297734
0.007927324
-0.036275644
-0.019652715
0.046422288
0.07954513
-0.017967312
0.012037457
-0.042116027
-0.0029541142
0.019876808
-0.024249421
-0.031195406
-0.015611395
0.00845749
0.006845239
-0.018041527
0.0033962082
0.041526128
-0.026333515
-0.01803855
0.006598296
0.010360261
0.028421424
-0.008188217
-0.020148218
0.061026685
-0.071740754
-0.020264842
0.03068135
-0.06899223
0.0062297285
0.008646138
0.07357747
0.06244359
-0.07906873
-0.026202146
-0.039436128
0.038985074
-0.064993806
0.028521862
-0.008586901
0.009169984
0.09069682
-0.01614123
0.13730241
0.0057745827
-0.062838994
-0.08532045
-0.010080494
-0.051197555
0.0151163405
-0.046793867
0.042821515
0.006323778
-0.10777572
0.2032399
-0.02316498
-0.04422477
-0.0020370337
0.010297299
0.028432252
0.031571586
-0.027555827
-0.004164938
-0.018214667
0.024835413
-0.0071899947
-0.0052495594
-0.0020063666
-0.0028926032
0.08424998
-0.046137087
0.001281054
-0.037860353
0.022829032
0.0541683
0.013463323
0.008743867
0.043127302
0.038836822
0.029887674
0.00311224
0.049489837
-0.0018897748
0.04153912
-0.010877469
-0.025564276
0.015934052
-0.056148667
-0.009759796
-0.007379192
0.015521079
-0.054915592
-0.009766072
-0.020939387
-0.06272464
0.029085107
-0.06577366
-0.027113821
0.005014777
-0.0061535644
-0.08185864
0.04049677
0.013150285
-0.12444167
0.019072324
-0.015580619
0.014550675
-0.005754937
-0.009990627
0.09290499
-0.007173694
-0.044225965
-0.024916157
-0.02593782
-0.022088459
-0.011697624
-0.072025344
0.13622448
-0.018165465
-0.028459353
0.00301555
0.092312165
-0.009507678
-0.1499346
0.013385267
-0.002607849
0.009219058
-0.047237948
-0.065171905
0.050191395
-3.8867984e-06
-0.04175705
-0.039273627
-0.09207195
-0.0013939964
-0.26326412
0.0149622215
0.08922732
0.028406339
0.047868982
-0.008100916
0.11255022
0.012496976
0.0674522
