0
-0.004778119
0.035515826
-0.024273481
-0.02908542
-0.010705007
0.0005420009
-0.021088293
0.0009451128
-0.08807193
-0.003712362
-0.010945397
0.09804307
-0.039948955
-0.005775292
0.09120197
0.002104401
-0.0039410307
0.004229881
0.01449177
0.01041221
-0.00066801894
-0.00350863
0.010119111
-0.0032687744
0.0063736276
0.058966048
0.0061261035
0.017131591
0.0065206885
0.05902094
0.006440226
0.004338443
-0.010365522
-0.0068449737
-0.006952926
0.024757499
0.01912401
-0.005355839
0.01929898
-0.0008877143
-0.007328521
0.0024099282
-0.04440643
0.0037647868
0.006148853
0.024140306
-0.031983696
-0.07200433
-0.06496902
0.0109342765
-0.00097480527
0.006495634
0.0011794474
0.0009887434
0.0013924815
-0.008885221
-0.002756709
0.0012240064
-0.026697004
0.026502388
0.052495766
0.00414154
-0.008431518
-0.044479065
0.008132678
0.0024585493
-0.01379492
0.009620304
2.9497265e-05
-0.0043547098
0.0018724743
0.009764629
0.009579956
-0.006368328
0.012128495
-0.0020154568
-0.00485064
-0.0045217997
-0.00092935
-0.013369016
0.021081543
0.00185893
0.012185188
0.0051674037
0.014175009
-0.0012065308
-0.014298089
0.012866111
-0.016939225
-0.015063009
0.00014044438
0.0022159556
6.3809624e-05
0.017112019
0.00058138027
0.0019446269
-0.008712492
0.009057529
0.010758564
0.0037196437
0.0018146029
-0.0056344173
-0.004209744
0.001141452
0.0005800719
-0.017983615
0.02107992
-0.0028035564
-0.0040204506
0.009571472
0.005747921
0.011512496
0.005374654
0.001061946
-0.004778516
0.018753368
0.02198998
-0.015186374
0.013122448
0.005226526
-0.000113030525
0.0139529025
0.009338473
-0.0023666464
-0.004256006
-0.003505302
0.005089699
-0.0011075713
0.0044608745
-0.0023318885
0.019800065
-0.0008230939
0.00011261499
-3.450165e-05
0.0042823553
-0.0079348385
0.0048368056
-0.002906454
-0.011520935
0.008739839
0.0017040649
0.030301878
0.00431031
-0.012138427
-0.0027362506
0.013528579
0.006124724
-0.0027787427
0.010995674
0.0038287682
0.017435575
-0.005635888
-0.011244369
-0.00018310013
0.0029807277
0.015007759
-0.00033659354
-0.0013690182
0.021989426
0.0006870339
0.004698606
0.013543122
0.0033400566
0.0026952596
0.008860234
0.007318415
-0.009371339
-0.025052903
-0.0030510228
-0.0037862647
0.0097745955
0.0046006697
0.0024583456
-0.0026833874
0.005179733
-0.005367991
0.009249451
-0.0015455945
-0.0069529233
0.0069657876
-0.0013964876
-0.0118700955
0.004227835
-0.005528822
0.0012254632
0.013329583
0.012811367
0.007139477
-0.0077982824
7.933607e-05
0.013125538
0.012941691
-0.02421905
0.008608244
-0.0018483473
0.049491618
0.0005630072
-0.0014223424
-0.0016229978
-0.025102777
0.0003179573
0.015974682
-0.007909576
-0.0032357064
0.0032780424
-0.002098913
0.0031385396
-0.0024112766
0.00089291343
0.0018132434
0.00021853515
0.013161149
0.0007255569
-0.024859961
0.0036477973
0.0014518445
0.05919582
0.0008935309
-0.02662079
0.0050829123
0.008699288
-0.008026064
0.0013003253
0.011446387
-0.00067392713
0.0011700495
-0.0029781105
0.0015077513
-0.006175073
-0.017233266
-0.007284934
-0.0086152125
-0.06231665
0.00492006
0.005590452
-0.03226293
0.009514269
-0.0021705376
0.0065930635
0.014782939
-0.0017243196
0.015556976
0.0024222094
-0.0138063105
-0.003330645
-0.0022448457
0.011124017
0.0021879643
0.011270609
-0.0022788064
0.000572574
-0.006319687
0.012255024
-0.007831909
0.01005681
0.0008707031
0.037524343
-0.037362076
0.036289774
0.032527912
0.0022285138
-0.011958745
0.01996571
0.0002851389
-0.03878851
-0.004674461
0.014610001
-0.041664302
0.014833343
0.020798486
-0.009866975
-0.028574092
-0.0040336763
0.00347467
-0.016402096
-0.020140689
0.036499742
-0.024351778
0.00533415
-0.014498698
0.00081880443
-0.0148996115
-0.016929697
0.0021276523
-0.047281455
-0.014953951
-0.014108399
-0.01118118
-0.012113106
-0.03444745
0.008823699
0.0017424099
0.014162507
-0.01557961
0.005937325
0.017267337
0.011545046
-0.034809608
-0.022703148
0.037698038
-0.009153436
0.0024801458
-0.050620366
-0.007552014
0.011554396
0.0021632276
-0.033432756
-0.005481243
0.0043566
-0.011673544
-0.046306584
0.041717563
-0.0017687962
0.033624627
-0.006989799
0.009033337
-0.04849588
-0.0075357878
0.040249918
0.044522576
-0.0030002883
0.0033088508
-0.019306775
-0.0041853893
-0.023608904
-0.0020209036
0.049194727
0.011202554
0.0019200512
-0.0020187942
0.017024426
-0.028668376
0.0069046183
0.006400089
-0.0043818606
-0.0039086337
-0.007377448
-0.013045861
-0.000115295836
-0.007413584
0.00057514646
0.04490847
0.007749069
-0.0054568523
-0.0065085976
-0.008997313
0.003783325
-0.007535237
-0.014475807
-0.014711609
0.0064748907
0.0077139996
0.019514538
0.0015775973
0.009344781
0.006235229
0.01149795
-0.005540253
-0.023326132
-0.0031601721
-0.0024174165
-0.00023939181
-0.038535852
0.0062413276
0.004914495
-0.0048765996
0.01162444
-0.0048582163
-0.016012667
-0.009267752
0.012247075
-0.012475337
-0.008147071
-0.003861556
0.0077088806
0.0059020766
-0.0048103407
0.0035954216
-0.030517284
0.008548748
-0.0093522025
0.0028687683
-0.017266197
-0.0074985875
0.0009020406
0.0061377743
0.008548138
-0.01500944
-0.0022015932
-0.0023737305
-0.011893325
-0.013481214
-0.0017142541
0.002358373
-0.01090063
0.005983881
0.01538966
0.02003896
-0.002895158
0.0192732
0.009576858
-0.007169749
0.00880321
0.006260947
0.010264827
0.027161408
0.01134017
-0.000768073
-0.026696067
0.007095487
0.011327181
0.0016080363
-0.0024659259
0.00902487
0.0023375845
0.007725762
-0.010642666
-0.0051548397
-0.002726205
-0.0065331436
0.008012693
-0.029808836
-0.003656687
0.012558386
0.014254272
-0.008777125
0.016976109
-0.018245727
0.017903585
0.00765837
0.012474762
-6.91364e-05
0.011108431
0.0041896957
-0.013601614
0.0015300254
-0.014992398
0.007735306
-0.020907573
0.012254359
0.00332443
-0.01190069
0.009992349
0.011416514
0.0038982388
-0.010707588
0.013583435
0.0012906981
0.014351218
0.010701042
0.016199445
-0.013918177
0.00058439746
-0.0075420486
0.017935622
0.036952943
-0.0029736783
-0.00899403
-0.02919772
-0.010607225
0.0056634843
0.012601797
0.018857105
0.0072853225
0.017711032
-0.026702337
-0.017182793
0.009102173
-0.0044559613
-0.02300115
-0.02309775
-0.017990775
-0.0054409024
0.0056161587
-0.0020942113
-0.01501246
-0.0018120089
-0.03507574
0.035373755
0.010394014
0.021633582
-0.012842937
0.005469347
-0.0073901843
0.02369481
-0.042456575
0.021494424
-0.024467582
0.010392656
0.014597389
-0.011914158
0.0022498146
0.025325261
0.01030938
-0.005775851
0.007603703
-0.0040935883
0.0013734973
0.031344175
-0.075564966
0.0052539636
-0.013474937
0.036590677
0.00259414
0.001915459
-0.02815205
-0.0050431555
-0.01586489
0.016942795
-0.013917428
0.018926904
0.013157023
-0.011780586
0.0094534885
0.0031566168
0.011315254
0.009085971
-0.010567504
0.002616337
-0.00361764
-0.005399652
-0.0030410697
0.0017755663
-0.001215185
-0.0028554949
0.013682596
0.0014705887
-0.0146842785
-0.0057569584
-0.009929424
0.0038167385
0.001872015
-0.00585618
0.0073585864
0.0040964726
0.0012636905
0.0021109078
0.0026095496
0.0021784105
0.0052039996
0.0064024567
-0.010747667
0.0023900177
0.013434809
0.0047533615
-0.005070929
-0.0075531453
-0.009360965
-0.009562828
-0.0056394576
0.011890502
0.0039726486
0.002388877
0.008757739
-0.004388959
-0.012433575
0.0049719056
-0.0108421985
0.01039599
-0.00096982863
-0.0004986561
-0.009108865
-0.0038115454
0.006918911
0.0024406388
-0.004921686
0.012176474
-0.0078206165
0.0037249255
0.011249222
-0.0062139607
-0.0035560026
0.0007505191
-0.0077813156
-6.0689e-05
-0.0031085804
0.0115895
-0.030016264
-0.0082729375
-0.012867908
-0.007178573
0.024517158
-0.024160858
-0.0021728734
-0.039857328
0.012044575
0.019152697
-0.04577188
0.006080953
-0.0034010268
-0.0038331463
-0.007020673
-0.005901996
0.0026743072
0.0032268555
0.010894851
-0.0074515897
-0.003100984
-0.0059630047
0.00971135
0.001507368
0.026386425
-0.0010215596
0.012647839
0.0070253788
-0.021113152
0.009992978
-0.012380007
-0.006439899
-0.016677076
-0.0027518177
0.018341659
-0.023203466
-0.0011084316
-0.0036613601
-0.2335646
-0.023524988
0.0042436663
0.0049111387
-0.00035744763
0.00016740421
0.007693335
0.0129794115
-0.0031543903
-0.00051226286
-0.00064490846
0.012323268
-0.019556155
-0.0052766097
0.025558738
-0.07910073
-0.0036752282
-0.0076795532
-0.03644722
0.00014628684
0.008193009
0.0060421443
-0.01721079
-0.15391049
0.0075220233
0.0002317407
-0.00068179733
0.006171644
-0.003936208
0.011305839
0.0072500776
-0.0031428973
0.007564175
-0.034273446
0.0073469016
0.0035019072
0.0057915687
0.016215608
0.00014648745
-0.007846929
0.0038369976
-0.00124499
0.0026619374
-0.0078752795
0.0043917135
-0.0008740822
0.0027656208
-0.005115491
-0.0008608488
-0.0022692445
-0.0022974499
0.0014623948
-0.008056033
-0.00696166
-0.002921102
0.0030092548
-0.0045548268
-0.00933106
0.029226512
-0.012104583
0.002603445
0.008716899
-0.0026974527
-0.010291756
0.00080365286
0.0104345465
-0.0016569367
0.002493576
0.00034438743
0.002574983
0.022913225
0.0021101965
0.0070302435
-0.0021260027
0.006947415
-0.00028251478
0.003340378
0.029144928
0.0035958402
0.0065224324
0.0044306736
-0.00837033
-0.000486509
0.010405088
0.0076123592
0.015691351
0.003299806
0.00019809371
0.0032835628
0.0069808695
0.00088591175
0.0019961814
-0.008262692
0.00070328114
0.0038165327
-0.0074891774
0.0032770946
-0.0010075185
-0.0039347755
0.01206304
-0.002311793
0.0038587619
-0.003957124
-0.011589506
-0.020274043
0.009233456
0.0069105756
-0.00836088
0.0054943515
0.009095621
0.00044445953
-0.014079317
0.006348645
-0.010863666
0.007513126
0.004063407
-0.0012953734
-0.0075796135
0.0066849166
-0.006525139
0.0044567543
0.009006554
0.014964574
-0.029832091
-0.0012376305
-0.014261872
0.020380741
-0.015730394
-0.0077211973
0.0076604215
0.0021010602
0.01032214
0.0033164907
-0.02692494
0.01422571
-0.002074753
0.0010721344
0.0037006026
-0.003015026
-0.009076855
-0.015118921
0.012906483
-0.006210717
-0.011302565
-0.010638452
0.02047075
-0.0012084055
0.004631541
-0.0026867676
-0.0015457518
-0.0060234633
0.014327223
0.0021036924
