0
0.03872351
0.0017570059
-0.1300929
0.007694244
-0.023792015
-0.06558941
-0.09594272
0.1162331
-0.1528962
-0.040064503
-0.00838549
-0.03250761
0.11714177
-0.09071817
0.014654946
0.1062435
0.03848505
0.101951025
0.0644587
-0.10717541
0.078547716
0.03634684
0.0930465
0.138984
0.035382506
-0.07493981
-0.08825995
0.01270069
-0.034062505
-0.088739865
0.064445175
0.06562854
0.07430192
-0.10023395
-0.05276876
0.05078331
-0.002856628
0.002527178
-0.065839484
0.045652784
0.11264091
-0.18123415
0.09313995
0.0820347
0.022100234
0.03355663
-0.043388687
-0.017642584
-0.10409666
-0.053460155
0.10085381
-0.07932526
0.07902354
-0.08213991
-0.03915158
0.09349697
0.012007091
-0.13649791
0.06544935
-0.108617485
0.0748555
0.032384913
0.016426884
0.011837532
0.032657698
-0.096511014
-0.016173253
-0.10833922
-0.020727294
-0.1036833
-0.092872076
-0.07110781
-0.011186152
0.1173392
0.10286846
0.029542215
-0.12040011
0.072452985
0.012330341
-0.11466389
-0.099027164
-0.052732345
0.10770731
-0.014268939
0.10021687
-0.045737185
0.03034134
-0.0038894482
0.09795443
0.008777857
0.052891128
0.03827022
0.15042126
0.11015953
0.064112745
0.03734573
0.01591631
0.12942241
0.17276853
-0.056979865
0.13325676
0.014388394
0.14309032
0.14038067
-0.03236929
-0.08372954
0.0368139
-0.0034885504
-0.013554777
-0.15407479
-0.04977917
-0.15323189
-0.0562979
0.066198386
0.07652978
-0.032962944
-0.05226205
-0.11973156
0.12790182
0.07873175
0.06182956
-0.20007055
-0.03934173
0.1049955
0.07237589
-0.11045295
0.046208214
0.06191419
0.005158582
0.06305515
-0.13058555
0.060249716
0.102219366
0.038479377
-0.06556373
-0.07197578
-0.11579891
0.0944143
-0.003833801
0.04982193
-0.056160312
-0.08118577
-0.018957568
0.051425394
0.02183971
0.1167062
-0.15710743
-0.024850687
0.10705761
-0.051171377
-0.03715694
-0.057249658
0.100766234
0.08785394
-0.029630728
-0.06491455
0.0739172
-0.06316993
0.002931429
-0.010423261
-0.0327846
0.12389683
-0.049158394
0.074034035
-0.02250793
-0.044092268
-0.09969663
0.035518434
0.11817735
-0.034312125
0.113738485
-0.054121938
0.013463935
0.038868114
0.07409919
0.09259628
0.12773669
-0.103054166
0.061632965
0.07958181
0.069249794
0.0016368893
-0.010381222
-0.04490934
-0.0647127
0.05584629
-0.105631925
0.008203971
0.13086464
-0.011351208
-0.07361085
0.004695155
0.121893965
0.013531839
-0.050755613
-0.043833982
-0.029853897
-0.033300307
-0.06457943
-0.05039759
0.06742469
0.010858994
-0.018467396
0.064255565
0.040600512
-0.03835034
-0.015010015
-0.006269962
-0.0731353
0.13081156
0.018582273
0.016234022
-0.122865595
-0.037575003
0.0011549715
-0.08950655
-0.023698976
-0.01256693
0.13727164
0.095088035
-0.051285848
-0.018010842
-0.05903772
0.020036923
0.006451835
-0.024969421
-0.014079124
-0.034330957
-0.010650585
-0.09924736
0.031447344
0.09601245
-0.026825463
-0.042619992
0.008993063
0.13716431
-0.1527217
-0.119329676
0.026949158
0.056893058
0.038792048
0.09763074
-0.05718748
0.011430038
0.15158021
-0.026532188
-0.11982068
0.030671742
0.01784514
-0.025628375
0.1012698
0.03845021
0.02438524
-0.050270513
-0.10163656
0.05222192
-0.103897534
-0.08777674
0.090927035
-0.047848385
-0.022445384
0.10734643
-0.11776072
-0.06104011
0.14144935
0.09769564
-0.108465925
-0.1020416
0.11939055
-0.003328448
0.032363363
0.16263254
0.109432615
-0.011703296
-0.042807445
-0.096023284
-0.20577912
-0.17706004
-0.018852312
-0.14935239
0.09636938
0.11147379
-0.06235836
-0.022387797
-0.08154823
-0.072174534
0.00904962
0.09607428
-0.03411678
-0.11967865
0.068712555
0.055459864
-0.049921498
-0.038909256
-0.1092291
0.14862403
0.013547318
-0.014406899
-0.03909284
-0.038397595
-0.15149467
-0.17103378
-0.019337323
0.15863879
0.16886102
0.030643364
0.024923056
-0.045272823
0.07423446
-0.10737983
-0.22992839
0.06874153
0.07524832
-0.25584215
-0.05591475
-0.03798147
-0.17080402
-0.18229736
0.088890046
0.027008958
-0.03228637
-0.09868369
-0.031988006
0.13900478
0.034473866
0.073331356
-0.10914961
-0.03481695
-0.06767862
0.0067932853
-0.12257227
0.1936618
-0.102241
0.10653148
0.03773902
-0.03168088
-0.16766536
-0.0594041
0.039908577
0.17883642
0.02303043
0.020648632
-0.006804472
-0.033632666
0.07919261
0.06835895
0.024325129
-0.19301096
-0.034395862
-0.08213442
0.013299523
0.08935428
0.007584642
0.021616166
0.026426
-0.0018243516
-0.02487667
0.034138244
0.14599995
-0.08854004
-0.081340544
-0.20489185
-0.13349333
-0.11099096
0.078843325
0.06697094
-0.07681804
0.18779528
-0.13266324
0.017985405
-0.22422984
0.261796
0.00017741394
-0.1676305
0.002607362
0.030724319
0.087466925
0.046166632
-0.116789415
-0.04456113
0.26678565
-0.05835542
0.1608912
-0.058929935
0.064616226
0.012441023
-0.017166754
0.002688433
0.13948238
-0.103814244
-0.04880298
0.0016069257
-0.083723776
0.08267592
-0.034437794
0.0051628235
0.0025774122
0.040686477
-0.08240507
0.017108938
0.049647514
0.020121269
0.0069889836
0.15188162
-0.053394485
0.009030783
-0.053898048
0.05435968
0.038188078
-0.042862497
-0.09857391
0.021198034
0.004478925
0.09037581
-0.06243929
-0.10096949
-0.041873742
0.016166542
-0.053998005
0.0033406797
0.028239718
-0.03970151
0.07490293
-0.031794146
0.039391093
-0.011735093
-0.01038078
0.08152734
-0.0070099905
-0.0165091
-0.0096270535
0.075601734
0.063899
0.027866906
0.0048477924
-0.21800433
-0.050141726
0.015540817
-0.0009881505
0.09410391
0.016663216
0.026315294
0.03854978
-0.086641066
0.0963719
-0.02158928
0.033488818
0.15229304
-0.018334422
0.1356538
-0.027186075
-0.1878075
-0.06210305
0.05395299
0.008965627
-0.00013016745
0.07341115
-0.0141183
-0.018549373
-0.025154987
0.10567593
-0.08219941
0.063335165
0.008109699
0.11861866
-0.07702769
0.013485494
0.025195435
-0.0058449414
0.1373725
-0.042936414
0.061540935
-0.122862965
-0.004463921
-0.0648467
0.03276646
0.020257449
-0.037358064
0.008807279
-0.10455706
-0.060336757
-0.011804449
-0.04469384
0.080046706
-0.09200246
-0.12328897
-0.07182505
-0.031270493
0.14982763
0.006081283
-0.065718874
-0.10620161
-0.040529553
0.048546854
-0.03969012
-0.061604597
-0.04741905
0.12178551
-0.11023246
-0.1539824
-0.07435312
-0.12647004
-0.09827399
-0.1552993
0.11057957
-0.03544508
-0.10008701
-0.024788229
0.033080317
-0.0733942
0.04003962
0.06497856
0.042318378
-0.04230797
-0.005227406
0.04831541
-0.010055458
-0.0656759
0.033109643
-0.029381864
0.035023957
-0.039645746
0.003946908
-0.0040471205
0.024140432
-0.03518146
-0.010680196
0.014428833
-0.098294586
-0.0130326515
0.037905317
0.1229769
-0.035436925
-0.035750043
-0.03820911
-0.042303987
0.032563463
0.00864119
0.010476422
0.037170097
0.008678703
0.0005908474
-0.12878345
0.09069656
0.06623823
0.010113116
-0.044402372
0.00966293
-0.044743724
-0.0010143124
-0.02426122
0.068895176
-0.011511889
-0.043718375
0.03584437
0.024704656
0.0050349683
0.019577762
-0.032509297
-0.07897469
-0.09389062
0.043421514
-0.010478053
0.05871274
0.029987622
-0.05722025
0.0397588
-0.0019374987
-0.006837139
0.06190548
0.104715414
0.008896407
0.037247796
0.13158822
0.08951128
0.005870335
-0.116839774
0.020755522
-0.0010514345
0.0730162
0.007323475
0.022532096
0.02528194
0.059024096
-0.014346757
-0.022790466
-0.04373047
-0.019253904
-0.021196757
0.07963144
0.08870444
0.011143866
0.09265824
-0.11620833
-0.037983082
0.06421245
0.05045013
0.03034012
0.027669944
0.025478285
-0.057844393
-0.05346716
-0.011839191
-0.06614952
0.016719282
0.038746428
-0.04265811
0.0032074894
0.02674298
0.057775963
-0.042201303
0.039152898
0.039396156
-0.0054319943
-0.023925409
0.04791982
-0.039554656
-0.00068279967
0.07911022
-0.015353553
0.054283865
-0.04006355
0.005048836
-0.1086486
0.06459552
-0.004994495
0.1269187
-0.050545126
-0.011256067
0.05110624
-0.13141084
0.03611386
0.015172506
0.05926095
0.12205805
-0.042306013
0.07847536
0.067531206
0.11513598
0.066030554
-0.06125227
-0.011647951
-0.06448133
-0.06325562
0.027331969
-0.006786976
0.046444017
-0.022172876
-0.027178181
0.1344262
0.0042028255
-0.0029699248
0.008315149
-0.053527422
0.019992834
-0.02250607
-0.056661118
-0.021829749
-0.0047328356
0.09379378
-0.08753843
-0.0852265
-0.06701805
-0.07795594
-0.017774858
0.0875359
-0.018246336
0.032769497
-0.023154167
0.0027257008
0.022995068
0.017248884
-0.014156803
0.02621675
-0.095484786
-0.1160421
-0.0026007898
-0.044991743
0.005908955
-0.065270476
0.055935796
0.015060974
0.0059974534
0.017451627
-0.057564806
0.008425413
0.0010943022
0.122147806
0.031950675
-0.01061077
-0.17972663
-0.006946451
-0.044099297
-0.015088441
-0.03742435
0.037584677
0.059590694
-0.035829708
0.03315106
-0.07761314
0.015163337
-0.032110564
0.03537462
-0.13482122
-0.0321363
-0.097348824
-0.03275199
-0.033793643
0.0023283078
-0.12048895
0.097147726
0.020845303
-0.03706755
-0.028706107
-0.05933627
0.04585305
-0.06253468
-0.08029688
-0.08011693
0.05890781
0.059219737
-0.08326382
0.11764499
-0.062319953
0.091924205
0.094187915
0.060452517
0.056240723
-0.049728476
0.0029422895
0.00360951
-0.11094165
-0.055950273
-0.034741845
0.0068144966
-0.06440368
0.043095406
-0.010821039
0.08226071
-0.014908055
-0.10930855
0.0017793892
0.09401492
-0.044549543
-0.07331278
0.0005705914
0.033447955
0.007346774
-0.028690804
-0.017569447
0.015826117
0.058341738
-0.07271865
0.006204361
0.062561005
0.07977916
0.08442182
-0.08779772
-0.111438476
0.09437917
0.024245134
0.07084506
0.05624341
0.016070798
-0.081531025
0.074567236
-0.06805005
-0.058744367
