0
-0.20960163
-0.047015317
-0.45673856
-0.042779885
-0.41338238
-0.46941078
-0.46763843
0.49689582
-0.46630102
0.303368
-0.31800523
-0.049100682
-0.1342601
-0.33898017
0.013503143
0.21374707
-0.048420116
0.47878516
0.315749
-0.49545622
0.05178359
0.07620449
0.41113153
-0.082275674
-0.1309584
-0.4845218
-0.4360304
-0.10970003
0.276013
-0.027286962
0.36352986
0.21364067
0.49590963
-0.10547635
-0.18364656
0.0065964907
0.05392997
-0.09067354
-0.15761015
0.2405285
0.43008026
0.10812662
0.3524946
0.47267753
0.20266008
0.41082248
0.078327164
0.10504707
0.10408233
-0.41857818
-0.14877358
-0.49771717
-0.03532072
-0.07320794
0.039252277
0.4996615
-0.092619106
-0.4356843
0.14587493
-0.41887188
0.45389476
-0.11517312
0.18624704
0.0006235526
-0.09456735
0.17680725
-0.034718577
0.33379355
0.044441424
0.17967112
0.04047922
0.10965491
0.05672545
-0.10629739
-0.4357312
-0.047017336
0.44098693
-0.4042759
-0.0031461061
0.3532001
0.4313328
-0.0027396749
-0.38801888
0.031859577
-0.19805984
0.3365925
-0.44165504
-0.1700738
-0.37843445
0.12247563
0.10132228
-0.017316245
-0.39582992
0.012524105
-0.15196443
-0.4025905
-0.07178708
-0.30769628
-0.37349692
0.01581526
-0.45540988
0.1077426
-0.4640591
-0.4690096
0.0071047163
0.45545825
0.03323944
0.025443396
-0.065972105
0.44430807
0.15155712
0.19546948
-0.0007284497
-0.34855542
-0.13481176
0.13214263
0.14357908
0.47804284
-0.09349813
-0.18598458
-0.24955353
0.24776144
0.01915326
-0.29547563
0.007111514
0.05577769
-0.10053418
-0.4299531
0.0068354853
-0.41122606
0.13135229
-0.47763777
-0.43605494
-0.4707595
-0.16898452
0.27877414
0.39763737
-0.08456623
0.45195583
-0.14462902
0.04689346
0.47463557
-0.31057537
-0.114767164
-0.43364584
0.17705715
0.375235
-0.24255955
-0.23298073
0.37104487
0.32095212
0.023440026
-0.028395833
-0.23362932
-0.09553487
0.047125854
-0.47176474
-0.39921138
-0.095174804
-0.21244101
-0.010859279
0.052327022
0.34068823
0.07584124
0.3020462
-0.16889924
-0.16330473
0.01458647
0.015048247
0.3710156
-0.0917656
-0.27184218
0.005015583
-0.029296972
-0.28130367
0.031066662
-0.10678189
0.45440942
0.12618516
0.07194646
-0.49634293
-0.084224924
-0.005671283
0.01870265
0.10472551
-0.3685704
-0.046351414
-0.13617788
-0.36124772
-0.39650574
-0.07102514
0.2516764
-0.015405397
0.023198653
0.06998687
-0.116976365
-0.023267485
0.103170395
0.09235621
-0.025266375
-0.011059713
-0.2849816
-0.2596078
0.03953096
-0.32526338
0.2618665
0.10252914
-0.012407696
0.03434764
-0.044946134
-0.4443658
-0.007830975
0.043577053
0.13722543
-0.4070822
-0.030614913
-0.422651
-0.021755332
-0.015881123
0.0020679692
-0.0037131917
-0.06908388
0.0054913843
-0.014778929
0.044966273
-0.4555373
-0.11092443
0.0073777377
-0.37896767
-0.003771851
-0.21090578
0.00672608
0.02124656
-0.026651023
-0.48055986
-0.251146
-0.0005133323
0.030874122
0.008411089
0.029686285
0.025947208
-0.023568196
-0.18124257
-0.04707997
-0.06016054
-0.035230238
-0.0081424825
-0.115704276
0.490323
-0.18440397
0.0077973837
-0.092592806
0.37603235
-0.36378655
-0.00814399
0.5311235
0.4636025
-0.13050053
-0.0784487
-0.21317796
-0.08362228
0.051777154
-0.15129077
-0.007203307
-0.08888769
0.025137473
0.10128229
-0.054715596
0.15405461
0.23842454
0.07877812
0.017883278
-0.0141944215
0.51620716
-0.052237358
-0.27090067
-0.25236323
-0.033939183
0.19349614
-0.10642421
0.10074708
0.069137014
0.3778892
-0.1762554
-0.28390393
-0.3092089
-0.13243185
0.118063934
-0.04468855
0.049978647
-0.17281993
0.010484611
0.0105975475
0.043587714
-0.06480708
0.5636954
-0.136728
0.10372542
-0.09847392
-0.09043099
0.27263308
-0.14676556
0.2640315
0.10999256
-0.13462408
-0.07762773
0.07123476
-0.35408014
-0.0023471208
0.101747185
0.016857259
0.045248426
-0.013378316
-0.15287259
0.100254126
0.25631267
0.15961273
-0.09451738
0.22688149
0.056957934
0.01003809
0.053744476
-0.09349744
0.3696267
-0.062299777
-0.01826811
-0.50052816
-0.344447
0.03823568
0.40264294
-0.5015794
-0.0039865705
-0.0532826
-0.013745873
0.14155653
0.4853488
0.044594888
-0.06395884
-0.010453636
0.031764314
-0.5010127
-0.08751282
0.44116285
0.06566027
-0.015719699
-0.38018075
0.036202263
-0.38515738
0.43142182
0.0503188
-0.00046189834
0.40988493
-0.066868044
0.121213004
-0.044853065
0.0671385
-0.024364907
-0.0027552207
-0.0019896964
0.0277009
0.07458683
-0.44842556
0.048383936
-0.5120353
-0.34096876
-0.14712238
-0.33984655
-0.026959118
0.07394846
-0.46050662
-0.3286015
0.10366188
0.49081424
-0.4428778
0.00049677235
0.45056203
0.27695832
-0.04107349
-0.08662262
-0.49787825
0.39727193
0.19387501
0.5061526
-0.48988718
0.2320074
-0.069805704
0.21388601
0.40305525
-0.0022136508
-0.16804202
-0.17176108
-0.43556318
0.025683302
-0.3510108
-0.14889303
-0.11659467
0.18450482
-0.0005657877
0.032717906
0.434222
0.13533233
-0.41648164
-0.46055576
-0.0075241057
-0.06019754
0.40712297
-0.12436094
-0.013198586
-0.244956
-0.030506203
-0.091491126
0.42494696
0.42383984
0.07524688
0.07247612
-0.039326802
-0.22982581
0.44472915
-0.14040832
-0.48802957
0.39713398
0.4539834
-0.0025198876
0.053517077
-0.42912543
0.48576936
0.4834017
0.018994855
0.478934
-0.06334848
-0.076424986
-0.02963613
-0.00836415
0.46913052
0.1287672
0.02404092
-0.29657745
0.13726768
0.25391418
0.03525205
-0.021702813
0.09467785
0.20449612
-0.05901378
0.20677263
-0.16614163
0.47046715
0.092516474
-0.05793638
-0.36234292
-0.13972056
0.33013105
-0.14976087
-0.022141231
0.03819882
0.043615755
-0.11126684
0.20016737
-0.041639633
0.32857722
0.05356422
-0.0668786
0.030622773
0.22013804
-0.00817476
0.4143065
-0.050453946
0.027981028
0.015930984
-0.33683765
0.0055779875
-0.027130656
0.31870595
0.115457185
0.05729848
0.025358666
-0.11917737
-0.026493644
0.069906205
0.3305241
-0.005141801
-0.014059844
-0.011270515
-0.005366443
0.0074852947
0.038536362
0.047643125
0.10101334
-0.107925884
-0.05102423
0.0005070979
0.02828693
-0.0064777546
-0.10053084
0.12277125
-0.15551852
0.23449063
-0.1741305
0.30676562
0.26093864
0.041787222
0.053345513
0.29042238
0.26484635
0.0055769277
0.34745327
0.30221704
-0.0038914592
0.03563978
-0.049191453
0.026914103
0.0064331833
0.24422623
-0.07330132
-0.08318729
0.06095536
0.30657685
0.23131168
0.17079107
-0.50204474
-0.15444945
0.20005345
-0.42443734
-0.03423712
0.22650595
0.49693513
-0.41339272
0.17887048
0.029462976
0.16830437
0.11598146
-0.074737884
-0.283915
0.17750698
0.10026371
-0.08501668
-0.24265507
-0.13276751
0.08760501
-0.4501624
0.099279106
-0.47408447
0.029274477
0.11334362
0.15105866
0.29306138
0.28215578
0.42453167
0.12524615
0.3938083
-0.4410076
-0.061623473
-0.016986266
-0.021354653
-0.09595795
0.08534014
-0.34174883
0.45587873
0.46292686
0.20158608
0.177267
0.40840814
0.50515145
0.4446199
-0.10705662
0.09972695
0.018139334
-0.25658008
-0.47855505
-0.093554154
0.034102295
0.49521714
0.047851637
-0.02656581
-0.057126585
-0.43856063
0.45867383
-0.091068126
-0.021748152
-0.29764262
0.12738465
-0.1415027
0.12264723
-0.031041794
-0.07428917
0.042320553
-0.11209064
0.15502617
0.055818863
-0.26793125
-0.39149836
0.10326227
0.16038027
-0.15571587
-0.08632993
0.12259832
-0.3336164
-0.08366732
0.101024136
-0.056402184
-0.16629314
-0.16649818
-0.12402277
0.01085769
-0.16251072
0.10151798
-0.025090886
0.01604698
0.0584893
-0.05394225
-0.0013805872
0.1340634
0.020347185
-0.048013825
0.1571969
0.05378439
0.038743988
0.119102255
-0.2645913
-0.027521184
0.16443759
-0.084669754
0.118342645
0.4053625
0.14275943
-0.095409945
-0.2562253
-0.09990672
-0.11612165
0.14770058
-0.08863507
0.087863706
-0.007873554
0.050076723
0.15300111
-0.003312468
-0.06815414
0.07337051
-0.48883057
0.17161794
-0.058944993
-0.04320916
0.0010811817
0.25974992
-0.014708004
-0.28956693
-0.010803362
-0.30895603
-0.20796144
0.04746138
-0.014202015
0.03905534
-0.020690974
-0.0031489132
-0.074140206
0.30183166
0.041834358
0.02725005
-0.044391636
-0.03811713
-0.028167155
-0.01324995
0.028665993
0.039288457
-0.013279768
0.044925578
-0.034481224
-0.021593027
0.36467546
0.04458243
0.0215042
0.3877707
-0.010754958
-0.35715994
0.0019708304
0.007027253
0.0641537
0.19733077
-0.047940355
0.01638006
-0.0036139807
-0.03743327
0.011768268
0.38883582
0.13714951
-0.3989203
-0.0937575
-0.07495
-0.34420624
-0.006894321
0.030373698
-0.0076645706
0.030181138
-0.40229803
0.021600064
0.20537797
-0.42313403
0.32227826
-0.34741077
-0.0025636596
0.27327755
0.34672317
-0.32666767
-0.019166324
0.11014009
-0.5458148
-0.21813972
-0.008570578
-0.0020903535
-0.0015027046
0.070081346
-0.06848491
-0.33148533
-0.3302416
-0.27927083
0.3920533
0.10008553
-0.58932126
0.13827159
-0.051080365
0.1262535
-0.13062371
0.12908988
0.018636111
0.45681444
0.5348909
0.2536061
0.18061773
-0.44521618
-0.2071861
0.03514706
-0.18576477
0.18603253
0.12049642
-0.25236014
-0.5763321
0.05547095
0.025866212
0.6019595
0.09127509
-0.43243867
-0.10262348
0.6568507
0.07130995
-0.09362587
-0.020906314
0.068230905
0.17450006
-0.06863409
-0.16579814
-0.050752938
0.4419271
-0.51645124
-0.010161184
0.0070536323
0.6491121
0.68044215
-0.48202556
-0.030298384
0.40683162
-0.006233434
0.3760594
-0.12341832
-0.12665196
-0.6289815
-0.12355793
-0.25815868
0.109558895
